
//<![CDATA[

// a few things don't have var in front of them - they update already existing variables the game needs
lanesSide = 3;
patchesAhead = 50;
patchesBehind = 10;
trainIterations = 400000;

// the number of other autonomous vehicles controlled by your network
otherAgents = 0; // max of 10

var num_inputs = (lanesSide * 2 + 1) * (patchesAhead + patchesBehind);
var num_actions = 5;
var temporal_window = 0;
var network_size = num_inputs * temporal_window + num_actions * temporal_window + num_inputs;

var layer_defs = [];
layer_defs.push({
    type: 'input',
    out_sx: 1,
    out_sy: 1,
    out_depth: network_size
});
layer_defs.push({
    type: 'fc',
    num_neurons: 36,
    activation: 'relu'
});
layer_defs.push({
    type: 'fc',
    num_neurons: 24,
    activation: 'relu'
});
layer_defs.push({
    type: 'fc',
    num_neurons: 24,
    activation: 'relu'
});
layer_defs.push({
    type: 'fc',
    num_neurons: 24,
    activation: 'tanh'
});
layer_defs.push({
    type: 'regression',
    num_neurons: num_actions
});

var tdtrainer_options = {
    learning_rate: 0.001,
    momentum: 0.0,
    batch_size: 128,
    l2_decay: 0.01
};

var opt = {};
opt.temporal_window = temporal_window;
opt.experience_size = 100000;
opt.start_learn_threshold = 50000;
opt.gamma = 0.98;
opt.learning_steps_total = 500000;
opt.learning_steps_burnin = 1000;
opt.epsilon_min = 0.0;
opt.epsilon_test_time = 0.0;
opt.layer_defs = layer_defs;
opt.tdtrainer_options = tdtrainer_options;

brain = new deepqlearn.Brain(num_inputs, num_actions, opt);

learn = function (state, lastReward) {
    brain.backward(lastReward);
    var action = brain.forward(state);

    draw_net();
    draw_stats();

    return action;
}

//]]>
/*###########*/
if (brain) {
brain.value_net.fromJSON({"layers":[{"out_depth":420,"out_sx":1,"out_sy":1,"layer_type":"input"},{"out_depth":36,"out_sx":1,"out_sy":1,"layer_type":"fc","num_inputs":420,"l1_decay_mul":0,"l2_decay_mul":1,"filters":[{"sx":1,"sy":1,"depth":420,"w":{"0":-0.10856427340180146,"1":-0.10517275547304039,"2":0.003476674904204766,"3":-0.3672295628948764,"4":-0.04921174566996692,"5":0.022648491814865328,"6":-0.10148842922188273,"7":-0.08623415391888649,"8":-0.1624625883630676,"9":-0.08161732214313219,"10":-0.22558157527186187,"11":-0.08812925059713267,"12":-0.04736258723090412,"13":0.11773244340643155,"14":0.008147827810441337,"15":0.02376775081880991,"16":0.13318328818193917,"17":-0.06649795390137027,"18":-0.15909056182951117,"19":-0.19124281985123331,"20":-0.06904786282626477,"21":-0.002190476749818753,"22":-0.0461063287348959,"23":-0.11241644647714588,"24":-0.05494446807531918,"25":-0.1681366665703834,"26":-0.13994897956767888,"27":-0.04794929518500917,"28":0.04305782259121035,"29":-0.17842829259524257,"30":-0.03125570263763426,"31":-0.14141511349848093,"32":0.0021903501576558434,"33":-0.0713383889171253,"34":-0.14361753683001835,"35":0.1477771911310752,"36":-0.0037233935980849624,"37":-0.051405000344909156,"38":-0.19509850812305976,"39":-0.09416237402823992,"40":-0.15317576184864057,"41":-0.034164031532842,"42":0.311423444572845,"43":-0.15246167883510703,"44":-0.02730079832172331,"45":-0.09935753112069577,"46":-0.0005378805287524239,"47":-0.14099581175584647,"48":0.03152376652503915,"49":0.24313573058778154,"50":-0.09031225150332237,"51":-0.10243536509929212,"52":-0.15277344197711817,"53":-0.018103886012968282,"54":-0.20116217812641649,"55":0.0330206706589047,"56":0.0911123089836108,"57":-0.11065110311645805,"58":-0.16331480651072125,"59":-0.24212237209892218,"60":-0.1242237355623893,"61":-0.2546669438285635,"62":-0.11852805942445502,"63":0.1578663823057316,"64":-0.07188218910103475,"65":-0.14328501497017782,"66":-0.2394225768957167,"67":0.009239797137148547,"68":0.01782389534356267,"69":0.12346021382865119,"70":0.059505439570699974,"71":-0.048574867887246874,"72":-0.09419568389996794,"73":-0.1827956352041844,"74":0.10975220258699274,"75":0.09341319897352951,"76":0.3487654140979392,"77":0.0549736657959415,"78":-0.2165288188338568,"79":0.02334054950388683,"80":-0.007487008949601655,"81":-0.04841219089761012,"82":0.060808276808603276,"83":0.20843555954269288,"84":-0.05933810632861994,"85":-0.007383952269296319,"86":0.007863167747393453,"87":-0.013006919508752376,"88":-0.04303854467136548,"89":-0.024784109912411725,"90":0.20979651170623795,"91":-0.12730164906862806,"92":0.0695914103493107,"93":-0.08150279408191118,"94":0.011383121062528166,"95":0.042901401593770525,"96":-0.039211030688299175,"97":0.1309261249285502,"98":-0.06404605806654556,"99":-0.1347643183430409,"100":-0.13754205904320982,"101":-0.09984680914471968,"102":-0.10730038911036335,"103":-0.21404796671829185,"104":0.07936195497261705,"105":0.09809980321171166,"106":0.009714586116986003,"107":-0.10939911797045851,"108":0.08511036044818188,"109":-0.012510824303384101,"110":-0.25475004091835357,"111":0.07905563217296929,"112":-0.004168326646484283,"113":-0.03456489166578192,"114":-0.1968332021811806,"115":0.10934425567902868,"116":0.01563619095539609,"117":-0.3181162653104878,"118":0.002049534944679174,"119":0.003996780087719267,"120":-0.1238011268713536,"121":-0.12165090517110785,"122":-0.14742291965640247,"123":-0.006528428290051198,"124":-0.11332562084207695,"125":0.03564923467365879,"126":0.06798873295934288,"127":-0.03656035506230202,"128":0.03448869574653326,"129":-0.04944458524751401,"130":0.11888629922868127,"131":-0.07745885587820273,"132":0.06695024580769589,"133":0.08316579593749203,"134":-0.02865101181015955,"135":0.0661313109507162,"136":0.0029893674087086266,"137":-0.1493162506902513,"138":-0.08385302473588312,"139":0.043791264309264416,"140":0.1325671069676823,"141":0.015838680080758415,"142":0.015873515008587552,"143":-0.0617057184346001,"144":-0.09066781715122256,"145":-0.07649035066154995,"146":-0.007283817900979626,"147":-0.020215002546057733,"148":-0.12084012286683597,"149":0.11490314589192055,"150":-0.034381722993149726,"151":-0.04780215570038706,"152":-0.03471802975120616,"153":0.11186999673603358,"154":0.11361352498288282,"155":-0.03783501640453988,"156":0.11703853018771546,"157":0.05599366062471922,"158":-0.05273540451846829,"159":0.08341306183514721,"160":0.06628307203269611,"161":0.044576493513319555,"162":0.059952929511803504,"163":0.06501576440457918,"164":-0.05764834105453885,"165":-0.06825930856396514,"166":0.12152437078793744,"167":0.06922878015048503,"168":-0.028996031219245787,"169":0.16402204449466584,"170":0.11644368262168074,"171":-0.03884254102785438,"172":-0.06832630575579461,"173":-0.025996291570777486,"174":0.08056004569757758,"175":0.22201255911801793,"176":0.19031287536996833,"177":0.23879949858899102,"178":-0.009902394319909072,"179":0.14456666960025247,"180":-0.038914311946468425,"181":-0.0650345849145895,"182":0.13425705218323955,"183":0.14639653079380777,"184":0.1535561876696508,"185":-0.10608477354401932,"186":-0.024165640486621825,"187":-0.18131390302065592,"188":-0.1591484710836442,"189":0.08159428772975892,"190":0.24368044941741407,"191":0.25034610067343804,"192":-0.22078870978862883,"193":0.07484832811968165,"194":-0.1831954508201076,"195":0.0012938198235735944,"196":0.02134102830419136,"197":0.16313466778060734,"198":0.25336987381758846,"199":-0.19316791087536847,"200":0.08010327945385066,"201":-0.05891762572684788,"202":0.07256268784058059,"203":0.036966670493701795,"204":0.03264735738811518,"205":0.16551744107651511,"206":0.14514950246161007,"207":0.12381797703476109,"208":0.06605467027075544,"209":0.11271572118700736,"210":0.05062689789216417,"211":0.11771240896171956,"212":0.14534860333571165,"213":0.14961172313830226,"214":-0.03932352897925273,"215":-0.04001390874935176,"216":0.1313216286910796,"217":0.011717324402807117,"218":-0.0031396766135463063,"219":0.06809523121416312,"220":0.25324368778550144,"221":0.005126570562660419,"222":-0.028809836143685593,"223":0.13450552435805385,"224":0.027493881431354648,"225":-0.04178837719734295,"226":0.15026946247364986,"227":0.18322560861335624,"228":0.07761267381394221,"229":0.15072223238699706,"230":0.013236018227331859,"231":-0.04074967280656165,"232":-0.018409854727550978,"233":0.2248414664518267,"234":-0.20333530248080864,"235":0.15460159014663968,"236":0.03492523377512233,"237":-0.1453715925553201,"238":0.016263253933368995,"239":0.05816246473939962,"240":0.14629423216013235,"241":-0.0640241823282306,"242":0.34351687106860584,"243":0.14177080443642506,"244":-0.04317127540931755,"245":0.03703748279857263,"246":0.024275370463913752,"247":0.008673364759038578,"248":-0.047520008314845645,"249":0.46040504717328984,"250":0.17995395931177488,"251":-0.0987091043264968,"252":0.1043182338613996,"253":0.1257419411189431,"254":0.23762849012697185,"255":0.027471156516187187,"256":0.35531552226828916,"257":0.19647369095997055,"258":-0.05935043708433303,"259":0.02216684675152287,"260":0.006130448921953205,"261":0.3148667537490199,"262":0.051447926393267514,"263":0.1986246606068982,"264":0.06082450434443916,"265":-0.11628085952222415,"266":0.03590233593330812,"267":0.02866441348657202,"268":0.472615977574096,"269":0.025906164914288075,"270":0.20932692686769486,"271":0.20419981055331354,"272":-0.05175425057648958,"273":0.00946650361853308,"274":-0.02959904742277943,"275":0.2842679637549325,"276":-0.14507157836349696,"277":0.04787234325536484,"278":0.15285437764592746,"279":-0.023356654664504976,"280":-0.0060391322376481755,"281":0.08129719032668305,"282":0.3960981609137227,"283":-0.14118375957047513,"284":0.08557605549521162,"285":0.0898455239507993,"286":0.00928020762590025,"287":-0.06880368473185543,"288":0.20565294796341754,"289":0.34098397986564466,"290":0.049898624336793464,"291":0.1760899634617813,"292":0.022372527804773428,"293":0.2132033540371918,"294":-0.07296472342940666,"295":0.08484070426533313,"296":0.30786532875490785,"297":0.075805886921385,"298":0.09616965793143746,"299":0.11376418690144381,"300":0.022248745064181653,"301":0.039139771811681726,"302":0.07527284472563049,"303":0.29007108447928037,"304":-0.13543600723353208,"305":0.15818791619131312,"306":0.04150346819502294,"307":-0.059183856158595415,"308":0.18698502123310054,"309":0.16512987045675898,"310":0.35549390361070377,"311":-0.17320931109301452,"312":0.05846350194067576,"313":-0.007068184333165094,"314":-0.06058006163443846,"315":0.06090008400659689,"316":0.21823707369710338,"317":0.6613204612658139,"318":-0.10925642395150004,"319":0.30896315293601345,"320":-0.05940161706643906,"321":-0.06771101952847645,"322":0.011892367155563998,"323":0.20036948665227164,"324":0.518007775865611,"325":-0.1077852125675567,"326":0.315136985779783,"327":-0.0686508383161396,"328":-0.11340444390341418,"329":-0.018442998937687024,"330":0.11334445139718922,"331":0.4290262148172769,"332":-0.21354796553576533,"333":0.18349995737570896,"334":-0.060672736455884495,"335":-0.0556267661392586,"336":0.06592508667556606,"337":-0.014242254640500013,"338":0.3774774588897585,"339":-0.37293770538138576,"340":0.2154879128103711,"341":0.07796443724787236,"342":-0.029876911602675773,"343":-0.006980818987594534,"344":-0.049510214148491126,"345":0.5845150267184894,"346":-0.5554157685270724,"347":0.31514154146514567,"348":-0.12273961218298315,"349":-0.06538015970386146,"350":0.012908736995431965,"351":-0.14765904206386976,"352":0.3182003221202911,"353":0.08776168141752605,"354":0.24323769928428848,"355":0.0091232199852672,"356":-0.03303694844600884,"357":0.023778586323976936,"358":-0.017041882633249468,"359":0.4011523845536082,"360":0.06527332074428738,"361":0.027990951415772097,"362":-0.09261302442784816,"363":0.06586889042496662,"364":0.008398488005171569,"365":-0.005506671807707416,"366":0.43209890628809217,"367":0.10555647521723174,"368":0.1705286651013359,"369":-0.06884746410382325,"370":-0.10979226799494893,"371":-0.035248821268081945,"372":0.014012153076837498,"373":0.22329720538345993,"374":0.12393328795903612,"375":-0.0514417764369685,"376":-0.02271727459462974,"377":0.047728310004563373,"378":-0.06577090850859882,"379":-0.029903462252647485,"380":0.02599719064237144,"381":-0.4936319000588878,"382":-0.09382122489482812,"383":-0.16800421694800005,"384":0.0702472448790728,"385":-0.2298314686444985,"386":-0.12792200590315098,"387":-0.1687673875955639,"388":-0.5020679087684762,"389":-0.10083796410214158,"390":-0.06322301042607116,"391":-0.0800774536440933,"392":-0.08932892666739888,"393":-0.0817068799920163,"394":-0.08229720833667581,"395":-0.5552618124602063,"396":-0.04675074760950586,"397":0.027928082353119252,"398":-0.03664533914014979,"399":0.009492236264666042,"400":0.052061802630986725,"401":-0.07072283515004113,"402":-0.03674562678439755,"403":-0.23929497152325438,"404":-0.07178318442061037,"405":0.049640848033103854,"406":0.08095241789721815,"407":0.11680785544202422,"408":-0.04728744252092693,"409":-0.11760245383885785,"410":-0.2802439525387094,"411":-0.15040113957073753,"412":0.0020461595114121133,"413":-0.007286091620294878,"414":0.0485760158407248,"415":-0.1425269713512768,"416":-0.07308525231482317,"417":-0.19979634435680257,"418":-0.0916234923328614,"419":-0.005953737349211988}},{"sx":1,"sy":1,"depth":420,"w":{"0":-0.021096046204707182,"1":-0.0502790376140768,"2":0.0008520921008146019,"3":-0.2033553814692327,"4":0.0452236602542595,"5":0.2955144004862251,"6":0.14727771906666978,"7":-0.05190705417584351,"8":-0.05520062919889752,"9":-0.06866792307963135,"10":-0.07431072955207828,"11":0.025219108830254855,"12":0.2043945064391273,"13":0.021085664805592493,"14":-0.053790132979465013,"15":0.006470141116604869,"16":0.08111878674303717,"17":-0.1778900630156054,"18":-0.009845764807841353,"19":0.1933573698759745,"20":0.15267942164290316,"21":-0.07228303483834718,"22":-0.09256600455199059,"23":-0.06471367744751272,"24":0.003315044098200804,"25":0.0729113003984298,"26":0.10725382176515007,"27":0.05033002316590199,"28":0.012857131786771343,"29":-0.08218632412163658,"30":-0.08643019424937376,"31":-0.030743382518018544,"32":0.023660021215157877,"33":0.20524486664195823,"34":0.07034235024931952,"35":-0.1284969720013183,"36":-0.035859454909866736,"37":-0.0655972695875751,"38":-0.015401658027861038,"39":0.09043716409769603,"40":0.1361515396383539,"41":0.1369667220494377,"42":-0.04108550290487241,"43":-0.1039991027432869,"44":-0.13955239380429388,"45":0.015619127520661177,"46":-0.018871836640876702,"47":0.05389500141075796,"48":0.0952007171855179,"49":-0.08045325789035178,"50":0.07646067014192895,"51":-0.05971524482061862,"52":0.01379776668992296,"53":0.08043124155579141,"54":0.05097965097174395,"55":0.11202036307427461,"56":-0.03745912373822125,"57":-0.10873060541724844,"58":-0.09004852101109245,"59":-0.06772264620677018,"60":0.19100423472546935,"61":-0.030189525893403686,"62":0.03748702157203932,"63":-0.028906468539873185,"64":0.020494143820211943,"65":-0.09350654467156957,"66":0.0014899194826600711,"67":-0.006411630813791178,"68":0.06239867539562468,"69":0.0016118577463875218,"70":-0.04971235618093083,"71":-0.1642228588844218,"72":-0.029908727603533136,"73":-0.13108371703092098,"74":0.15622163089699995,"75":0.07748775734174501,"76":0.045994954726805974,"77":-0.0645278838072937,"78":-0.16160363277471587,"79":-0.13016683612422475,"80":-0.07565742188401561,"81":0.06132832426545215,"82":0.1928903504045109,"83":0.07040348687114442,"84":-0.05567332763153222,"85":-0.01535811885257901,"86":-0.0764072351465474,"87":-0.09890834216915155,"88":0.04069453416814615,"89":0.1413537117160683,"90":0.14218993366832888,"91":-0.0344247799910298,"92":-0.024302239792624136,"93":-0.22336544630886376,"94":0.029366804915399544,"95":0.04751010995234081,"96":0.11572493037862476,"97":0.037309792580394234,"98":-0.013486091254565376,"99":-0.1550779754250161,"100":-0.021823264640493875,"101":0.027615736817395358,"102":0.027350170743609455,"103":0.08450810876927732,"104":0.07865505982846435,"105":-0.18792114256053116,"106":-0.1755723912876,"107":-0.12202057130396717,"108":-0.19654868071423678,"109":-0.03394583203911186,"110":0.11196816633199039,"111":0.0020616839043275698,"112":-0.04110948398171633,"113":-0.13644678580463238,"114":-0.18507535031694414,"115":-0.1596465452942034,"116":0.07273461812331353,"117":0.16877705984208377,"118":0.00598035306199623,"119":-0.08598361654419373,"120":-0.30395935812758695,"121":-0.14734692422971563,"122":-0.1324075078965694,"123":0.04426382605726998,"124":0.021070568718611873,"125":0.051930330900720086,"126":0.036954723573461426,"127":-0.07239483331833246,"128":0.1033048775380079,"129":-0.21670154403249364,"130":0.00006441718736612074,"131":0.1292105911535924,"132":0.11776634968226306,"133":-0.1781357764514424,"134":-0.15941155863170714,"135":-0.057377451509434886,"136":-0.05570768426401744,"137":0.03893291221670628,"138":-0.047028620168188824,"139":0.0878174908126058,"140":-0.16330765135990832,"141":-0.1850581237632305,"142":0.028329766202528202,"143":-0.10843661773238683,"144":-0.018446046497399435,"145":-0.08206171230293165,"146":0.048736236468902995,"147":-0.03076987449038701,"148":-0.1634107186179535,"149":-0.1263407494181048,"150":-0.11196741018173041,"151":-0.022500819931273407,"152":-0.02576441232335968,"153":-0.012632576502576945,"154":-0.0952112930376758,"155":-0.14581754203404823,"156":-0.1582226927045572,"157":-0.16590078122913227,"158":0.02775787162989497,"159":-0.1351398938096237,"160":0.03859292461858771,"161":-0.08426328104342903,"162":-0.038789877294472475,"163":-0.10047731445480759,"164":-0.09892292250240597,"165":-0.11293082773176566,"166":0.10153943850339928,"167":0.027625011271352345,"168":-0.0829699443049484,"169":-0.12930522725839358,"170":-0.31754626152823334,"171":-0.24309249734900515,"172":-0.07979845332087109,"173":-0.04370254059353131,"174":-0.02377531926163777,"175":0.005615402464915837,"176":-0.03705892613613058,"177":-0.10299330922069268,"178":-0.15191264858398115,"179":-0.09893417225901568,"180":0.16642948699955082,"181":0.018787856937662516,"182":-0.12524854898379717,"183":-0.004395251527331069,"184":-0.14800321846332898,"185":-0.17195240066524684,"186":-0.0724102529694625,"187":-0.1430832442311413,"188":0.054111475982510246,"189":-0.09887193281389996,"190":-0.026763910546131656,"191":-0.12239636057026877,"192":-0.13940436107655693,"193":-0.05446954443151774,"194":0.1450466843562896,"195":0.033322782542183946,"196":-0.22273618137713894,"197":-0.018801345025844934,"198":-0.014062095735222215,"199":-0.25857941611306756,"200":-0.12915301459221953,"201":0.08832455410142748,"202":-0.053761493292297,"203":0.0024355929959441573,"204":0.11297569150787416,"205":-0.12990429999577247,"206":-0.3054703402569504,"207":-0.04088863710409689,"208":0.14002312837663755,"209":0.09939030561005292,"210":-0.09292386860279386,"211":-0.049790028093146234,"212":-0.13569126282097344,"213":-0.26691148898914463,"214":-0.05378614707887159,"215":0.10515268681787268,"216":0.10540700506857499,"217":-0.004992822285885129,"218":-0.04525323573814471,"219":-0.03191159587332355,"220":-0.18249223494953223,"221":-0.08943839597233735,"222":-0.09626173841843046,"223":0.013514508308661775,"224":0.06581233253699134,"225":-0.04688163270753277,"226":-0.20012222878788968,"227":-0.16056232447846633,"228":-0.051362613864250575,"229":0.1325679926782326,"230":-0.009011600048609484,"231":0.016804439393848493,"232":-0.07699634645012976,"233":-0.09757361300103129,"234":-0.21153478159480754,"235":-0.20164559091025774,"236":0.00785523112860438,"237":0.24098788697082424,"238":0.016429207739786334,"239":0.19135859855205545,"240":-0.020564353117340985,"241":-0.07346500212622264,"242":-0.11575353079185177,"243":0.14798337421178095,"244":0.0648045219208665,"245":0.15356801891154737,"246":-0.018152277388765486,"247":-0.0771670537659761,"248":-0.19594696249158722,"249":-0.15124260802837564,"250":-0.0361778311179785,"251":-0.03525502274777661,"252":0.18794423799596455,"253":0.18123233811595307,"254":-0.043365466141438776,"255":-0.059766113002390694,"256":-0.19695596678448654,"257":0.06095853900496564,"258":0.016485631817121843,"259":-0.04358768478534079,"260":-0.060644546644642514,"261":0.023602940473487162,"262":0.09913834641117943,"263":-0.1467226873735898,"264":-0.010328778159523655,"265":0.022808247100457438,"266":-0.02344411671436053,"267":0.054732878932372137,"268":0.08236298085079659,"269":-0.06687237335176187,"270":-0.27611040580421076,"271":0.06599980750161356,"272":-0.0616139221281089,"273":0.08072647578146556,"274":0.19932448877458384,"275":-0.0022757344717968253,"276":0.1289373947330454,"277":-0.06466230920945597,"278":-0.0560606999608442,"279":0.07982693736453625,"280":-0.01297836561318603,"281":0.13239791050206623,"282":-0.16642333484537172,"283":0.2425591733631358,"284":-0.19266979373437618,"285":0.000397353854009265,"286":-0.011912778099576742,"287":-0.0694052387165188,"288":0.23245713706842613,"289":-0.1334830450530402,"290":0.042666955563097124,"291":-0.002326160566806545,"292":-0.0713912027936321,"293":0.01584551914269857,"294":-0.05561907671945804,"295":0.19571069807765332,"296":-0.10125247067620254,"297":-0.031148205071773193,"298":-0.115020223998339,"299":0.02228399150968566,"300":-0.03359502844312607,"301":-0.07757205448748998,"302":0.27140995967041187,"303":0.03100680949074236,"304":0.0376748879880035,"305":0.04635437537173104,"306":0.18444604871095163,"307":-0.010239880121001391,"308":-0.1126588650419369,"309":0.18309449100848002,"310":0.1764935198085689,"311":0.21394522541718786,"312":0.01861089386730192,"313":-0.006176292496259642,"314":-0.1167524576628083,"315":0.07735531414518058,"316":0.2236381724527255,"317":0.10853065886701765,"318":0.010535894248586402,"319":-0.1032212113381896,"320":0.03684809095330469,"321":-0.07316143365298557,"322":0.08490310561467714,"323":0.16975688249502804,"324":0.09811849861649508,"325":0.05930964528447133,"326":0.08612912911463663,"327":-0.07284954781177282,"328":-0.007854189676418549,"329":-0.056851625204542504,"330":0.17132224053597567,"331":0.18361595560687122,"332":0.012298900089818182,"333":-0.21073685068803907,"334":0.0814879578722886,"335":0.023018271906362884,"336":0.16491325848505228,"337":0.21363373156737622,"338":0.5236116045153015,"339":0.13989540880358087,"340":-0.09754412870181968,"341":0.03942610170259013,"342":-0.07284915627200134,"343":-0.04531248280026095,"344":0.06365826257039901,"345":0.34137461000326746,"346":0.23068145090541925,"347":-0.09083161855749707,"348":0.1692813600650588,"349":-0.05084954145231696,"350":-0.055942109404565794,"351":0.10665126884412374,"352":0.2550065772016852,"353":-0.013155408665400546,"354":0.027171169694725404,"355":0.11636443325478373,"356":-0.016873785291816785,"357":0.03784459110245612,"358":0.07250978311100016,"359":0.1341750141951032,"360":-0.13754772226500248,"361":0.058544680999298465,"362":0.06936494877890773,"363":-0.04278813485861683,"364":-0.0356539609961825,"365":0.08370691689402057,"366":0.08821346340242793,"367":-0.09403198602899694,"368":0.1766529829787821,"369":0.011980479854689014,"370":-0.05708353677536943,"371":0.014468406925565823,"372":0.152144929511931,"373":0.15041118479401414,"374":-0.05200527049507041,"375":-0.06580591752210864,"376":0.10348433452309216,"377":0.021119928304052286,"378":0.2060986340236053,"379":0.049583436795796576,"380":-0.030947332853461653,"381":0.3154884408490664,"382":-0.0407086359022001,"383":0.1739042431279952,"384":0.08740646636489466,"385":0.0877223086457287,"386":0.018377060659921604,"387":0.03390764593345927,"388":0.27074130276819847,"389":0.1253642307022885,"390":0.21236465168132926,"391":0.14450906711174485,"392":0.056532440092597856,"393":0.1126772898247852,"394":0.09027266981022887,"395":0.13353568622456877,"396":0.047187204233909624,"397":0.048797813198378115,"398":0.11202595326633576,"399":0.030288721545958564,"400":-0.12864432097232187,"401":-0.1352415424033976,"402":-0.020558922981640512,"403":-0.022107992809704644,"404":0.057457114793127956,"405":-0.03022267914899203,"406":-0.03246209433323697,"407":0.14613279615783617,"408":0.07050587023377465,"409":0.005264379869101325,"410":-0.047186942459674766,"411":-0.022832665926587854,"412":0.014165874404146482,"413":-0.10858892038655402,"414":0.1291831734225923,"415":0.054906780215821654,"416":0.033135729865410336,"417":0.09218648523168674,"418":-0.023270116085075534,"419":0.08856535400696809}},{"sx":1,"sy":1,"depth":420,"w":{"0":0.21301102068841615,"1":-0.09367717853597338,"2":-0.18260091695811773,"3":-0.2854657185602937,"4":-0.19865361912813012,"5":-0.0421262907455639,"6":-0.11308590390434435,"7":0.27846752679842646,"8":0.09089677515317131,"9":0.17150837484919,"10":0.01814637622281631,"11":-0.0722338435827729,"12":-0.09565233527748124,"13":-0.04774723281785628,"14":0.19141091834935323,"15":0.00005147807418062751,"16":0.19760057594913158,"17":0.10161109145504463,"18":-0.0938015623601351,"19":-0.20122121844381316,"20":-0.13636715251472956,"21":-0.08122194895464613,"22":-0.05227664869068787,"23":-0.04124338420923314,"24":0.15767573659069845,"25":-0.10129518138987097,"26":-0.12013041959611837,"27":0.013508192788210468,"28":-0.12052421443479665,"29":0.08377586409631639,"30":-0.042307162188863816,"31":0.18525588398448575,"32":0.02323267079619593,"33":0.012254353470960683,"34":0.009828753061890145,"35":-0.2293375321200125,"36":-0.025529565181219963,"37":-0.19527743970944977,"38":-0.05822283448467821,"39":0.05796116797599866,"40":-0.011237635110310831,"41":-0.03201358619534682,"42":-0.13441581180020717,"43":-0.010472948269717652,"44":-0.21407437751851618,"45":0.04940404743445226,"46":0.08896009801652427,"47":-0.04314288129292152,"48":0.06671856636763149,"49":0.05170272076236553,"50":-0.00811303590130124,"51":-0.07484154783250055,"52":-0.14541622263094622,"53":0.11916466351298448,"54":0.06454105411705734,"55":0.218367187262622,"56":-0.009173730717782273,"57":0.005365772347436003,"58":-0.11895862352310456,"59":-0.063299974768265,"60":-0.16372233842443484,"61":0.06193895114029212,"62":-0.013775862898597212,"63":0.009772422702394971,"64":0.16796305360843827,"65":-0.104330683826868,"66":0.13568646142462706,"67":0.0015239900013253713,"68":-0.03670269430907642,"69":0.043289987167087055,"70":0.061409586451150265,"71":-0.11225949227288334,"72":-0.03529729998656041,"73":-0.02445055810815011,"74":-0.08668852670825321,"75":0.0970928097380775,"76":0.11488080210261885,"77":-0.0327424239582196,"78":0.0598213602668273,"79":0.042924803292828315,"80":-0.2044274239792852,"81":-0.20195531294524457,"82":-0.0765865180434843,"83":0.02914447305364692,"84":0.08434231781482475,"85":-0.08974207318465546,"86":0.11832355541165823,"87":-0.027585865666180303,"88":-0.22867747556097495,"89":-0.06441473973592707,"90":0.29069093852186667,"91":-0.04744147130226533,"92":-0.03705219024985624,"93":0.11204708043142775,"94":0.0594193582785097,"95":0.06729609461659913,"96":-0.010603818685882034,"97":0.06881425439874965,"98":-0.2519316998912421,"99":-0.09279672015088128,"100":0.045443252289844756,"101":0.05450744955169814,"102":-0.09669955777177418,"103":-0.049078975134711926,"104":0.031034332730321152,"105":-0.27436328241921165,"106":0.059612701642091696,"107":-0.11784659540714655,"108":-0.004208687021044108,"109":0.11859654970613223,"110":0.03864514610100261,"111":-0.10112506104083403,"112":-0.11054411269098978,"113":0.028747223236593233,"114":-0.012230394761189428,"115":-0.11792970350931208,"116":0.3397622927990779,"117":0.021169261063306723,"118":-0.05019372877372024,"119":-0.11281409849066402,"120":0.030836179498932567,"121":0.09792504934342984,"122":-0.12259609084403435,"123":0.1887393533200297,"124":0.08356065190894675,"125":0.07294046448491416,"126":-0.023163375338729194,"127":-0.10102023828877289,"128":-0.02500414252856863,"129":-0.07060880677207405,"130":0.05937598200638808,"131":0.1343243836219819,"132":0.14971418084813481,"133":-0.19685155468298973,"134":-0.07669497342996422,"135":0.09060699522336653,"136":-0.1068759266969512,"137":0.03433854868840184,"138":-0.13645760050384276,"139":0.13975502792134895,"140":-0.19685352592868735,"141":-0.19058930825540488,"142":-0.039332208037006544,"143":0.09415420054788962,"144":-0.08940739843303071,"145":0.12776435435984695,"146":0.1486781549726144,"147":0.07494607699253117,"148":0.09282865512031202,"149":-0.223459712614517,"150":0.06970456516651893,"151":-0.14555088665627103,"152":0.08611612244107811,"153":0.1301724420612368,"154":0.05845049038458276,"155":0.23484268253181417,"156":-0.20263888881957334,"157":0.13692347441384198,"158":-0.07150453853412168,"159":-0.0039421054642368725,"160":0.10873165587051327,"161":0.001972146963779397,"162":0.1438871633990937,"163":-0.0943559405370836,"164":0.09824635917771528,"165":-0.09329421142935537,"166":0.07470889813956691,"167":0.07899054055961612,"168":0.045832021941871505,"169":0.03664061010504638,"170":-0.12700667659508968,"171":0.05706475591332976,"172":-0.05853379083814074,"173":0.09552570159902775,"174":0.0947534766034495,"175":-0.0308764896647503,"176":0.09436910455974784,"177":0.03535810634175627,"178":-0.049857133754310626,"179":0.14793378426447384,"180":-0.12774802756889103,"181":0.04376632392143366,"182":-0.07741947000290406,"183":-0.03855602635448293,"184":0.09965004695329913,"185":0.06867139370501285,"186":-0.08485003029042677,"187":-0.18400242676663406,"188":0.11931528535763035,"189":0.08562573793186416,"190":0.1168056589503218,"191":-0.08158075833920625,"192":0.17865858235545434,"193":0.12381830735949875,"194":0.055970449096874146,"195":0.16447575094818123,"196":-0.010607797613615811,"197":0.11154404590017808,"198":-0.23419074934254777,"199":-0.010377099688144296,"200":0.23541017186463142,"201":0.027526273845716532,"202":0.023200370346464702,"203":0.044795422773616554,"204":-0.02056511142921108,"205":-0.12251298941156642,"206":-0.0450371593939701,"207":-0.10392195689891105,"208":0.06780766958142663,"209":0.1275065376598689,"210":0.1769208820051793,"211":0.02591404949962325,"212":-0.027852120947605558,"213":0.07304632906982167,"214":-0.07409005903795103,"215":0.22659230639313876,"216":0.1163279710843485,"217":0.04858978787202882,"218":-0.1270992354162143,"219":0.07118422004481618,"220":-0.23188142801704312,"221":-0.029741613945247596,"222":0.1367778902958451,"223":0.07193034508454446,"224":0.1098771245203151,"225":-0.11312623576232944,"226":0.1662633833080891,"227":-0.12380856352539693,"228":-0.03868086724767063,"229":-0.12357152642894535,"230":-0.18514043910706354,"231":-0.05862212284674859,"232":-0.06480668983228259,"233":0.08587069605468622,"234":-0.3243791213511844,"235":0.010898909500229313,"236":-0.07347984516393949,"237":-0.08182628666518735,"238":0.025994042881974818,"239":-0.08374832122228293,"240":0.18434709660409096,"241":-0.5392253569917855,"242":0.15654977862149722,"243":-0.1461250127040951,"244":-0.1421565159457459,"245":0.1093899747530224,"246":-0.02339585788482703,"247":0.2861805945640727,"248":-0.14770846430484297,"249":0.21056788775460444,"250":-0.19090768472191333,"251":-0.17429033334834215,"252":-0.05542509577778407,"253":0.10478182683481867,"254":0.06574593235435763,"255":-0.2335104519079086,"256":-0.0177414728870912,"257":-0.000811158905067348,"258":-0.2047919031648724,"259":-0.03608827842496799,"260":0.06632708207352822,"261":0.06828749038762613,"262":-0.15740461793282368,"263":-0.03055711301402461,"264":-0.0489131500651325,"265":-0.15284926860903897,"266":0.042254835808522996,"267":0.008803708648565192,"268":-0.25376326139657346,"269":0.1237068199124841,"270":-0.030443283027711272,"271":0.0044101864297618,"272":-0.006444107942538896,"273":-0.20746057237127072,"274":-0.03403258534628922,"275":-0.09534996918733754,"276":0.031041657106395205,"277":-0.3959890534139027,"278":0.06083375928195187,"279":-0.007722372239513729,"280":-0.0641819292837245,"281":0.06495936119147959,"282":-0.21915972476141968,"283":0.38441631278778154,"284":-0.3198163790315039,"285":-0.23833123057235034,"286":0.059278572082732066,"287":0.1295606988166839,"288":0.2314901791591439,"289":-0.43043583405107555,"290":0.3504116305462616,"291":-0.2452937231616327,"292":-0.12221700568138495,"293":0.07356655961281272,"294":0.01078334368077143,"295":0.0342994678339197,"296":-0.1858450948812412,"297":0.23826259909008188,"298":-0.16321072793251912,"299":0.07416685875272558,"300":-0.08951094179245586,"301":0.059649350432304876,"302":0.10822129254218862,"303":-0.16892680691300854,"304":-0.18604001166400935,"305":-0.01318440208964362,"306":0.11179540077541325,"307":-0.19292806458124329,"308":0.13067871677538492,"309":0.02671661916508013,"310":0.0399025932591666,"311":-0.4208467397551253,"312":-0.026140572291181396,"313":-0.10226178521195985,"314":-0.1280769835592528,"315":0.2447005706793965,"316":-0.1556042846925212,"317":0.4434290173346119,"318":-0.5727045681433275,"319":0.11112348166247184,"320":-0.18564198309735927,"321":-0.10739485571760388,"322":0.07254464520167675,"323":-0.18550054956223563,"324":0.19592882808891607,"325":-0.3561757247644053,"326":-0.0740610019164933,"327":-0.1637739298941208,"328":-0.20810813911085266,"329":0.08307524816606393,"330":-0.04476289719231174,"331":0.20456869767702396,"332":0.08328761388264828,"333":0.2183071490733746,"334":-0.4952522662035051,"335":-0.10357213084677737,"336":0.006425198186506398,"337":-0.13922870548182129,"338":0.1382181618119053,"339":0.3331754672019296,"340":0.10045806684013701,"341":-0.36690863034546206,"342":0.003958681672404697,"343":-0.07931550770791027,"344":-0.24815945989752325,"345":-0.13853096390155983,"346":0.2736745856730955,"347":-0.003827127737369049,"348":-0.3705405431683077,"349":-0.2044227752035039,"350":0.01646836584847644,"351":-0.10624017684932334,"352":-0.024154958957621597,"353":-0.0807104868545089,"354":-0.07397001431088956,"355":-0.2305639965429934,"356":-0.0038220909382241024,"357":-0.08361192156755341,"358":-0.08827954605051762,"359":-0.254555394665556,"360":-0.13931728749866948,"361":-0.15566204710023065,"362":-0.1511017944867966,"363":-0.03931290775656973,"364":-0.13354804152602276,"365":-0.12781212193746566,"366":-0.37433992222806634,"367":-0.0539547058378727,"368":-0.20170140109623566,"369":0.13616092761077514,"370":0.13413106920646473,"371":-0.04493544550023531,"372":-0.12511666901936616,"373":-0.34850681735222333,"374":-0.11068241259007203,"375":0.021570918689253458,"376":0.035669277677320664,"377":0.0973816083814355,"378":0.05203144571580616,"379":0.07902556132595973,"380":-0.15822497781907935,"381":0.4259056203821021,"382":-0.03311716084805472,"383":0.11571980332116615,"384":0.1541994225851433,"385":-0.005212984888436573,"386":0.028836974242559675,"387":-0.016926017266761257,"388":0.29519947167487953,"389":-0.053883191083023786,"390":0.20409509183453806,"391":0.17040009206128925,"392":-0.1034731982801983,"393":-0.1386767484436317,"394":-0.06260443344841854,"395":0.32760710030289414,"396":0.10542196025444255,"397":0.31668498190964217,"398":0.01966182062045137,"399":0.04788103906342316,"400":0.027117451553671394,"401":0.27785296881782484,"402":0.09982392176535405,"403":-0.07562176302274974,"404":0.1728787530616685,"405":-0.05665858652741927,"406":-0.08957642600460321,"407":0.008212981794334044,"408":0.3376325383757747,"409":0.08046143989373583,"410":0.16532268675077474,"411":-0.016125221283023315,"412":-0.18707892181003397,"413":0.11327950380915092,"414":0.11073428219433602,"415":0.27843629173461654,"416":0.1830186688501668,"417":0.037644216822912434,"418":-0.07046147132459117,"419":-0.04786953494307603}},{"sx":1,"sy":1,"depth":420,"w":{"0":-0.2616532996356539,"1":-0.05359009077102198,"2":0.1137873814068307,"3":-0.025854745983888316,"4":0.012559764084355158,"5":-0.2161918073755469,"6":-0.022820221628705107,"7":0.02338584291875516,"8":0.07385563188722598,"9":0.15239117407528402,"10":0.0323065205313366,"11":-0.07821661524458112,"12":-0.013393619219067484,"13":-0.0061446524956533955,"14":-0.10978226256437955,"15":-0.14627081852207935,"16":0.09034562459357404,"17":-0.10948764562801776,"18":-0.022326385572259962,"19":0.022577908178398765,"20":-0.017150324671780143,"21":0.011556940151116434,"22":-0.13133826339002036,"23":0.22657244118299136,"24":0.006920475019798948,"25":0.05142688080610544,"26":0.17834240582050795,"27":-0.13878393796755953,"28":-0.07253765937156445,"29":-0.11768000153214384,"30":0.05940302223963885,"31":0.00463605243631435,"32":-0.0223782070602117,"33":0.17297261880719408,"34":0.005325278093620099,"35":-0.12794426990309649,"36":-0.0661931236950842,"37":0.01276600603095497,"38":0.06516890098693785,"39":0.10712844401094146,"40":0.036741459087533825,"41":-0.010078355169551424,"42":0.08878575269205799,"43":0.00010970541886160383,"44":-0.04275964173435629,"45":-0.07784685628203931,"46":0.04306691849052885,"47":0.10557593003279304,"48":0.15290909232647723,"49":0.08791269678255897,"50":0.028733819326315076,"51":-0.021909287199699444,"52":-0.11875685376531504,"53":-0.017202137288034186,"54":0.17013479465774556,"55":-0.020440521823431063,"56":0.17341037234277512,"57":0.06412150971383812,"58":0.044212488336652485,"59":0.06289308831089929,"60":0.05800826997883106,"61":0.029830327441379447,"62":-0.09496193412139305,"63":0.07087333692010621,"64":0.07516071207916251,"65":0.16574330645559496,"66":-0.04449574715572903,"67":0.0033522550230609487,"68":0.00960288442797257,"69":0.061118255441152736,"70":-0.05864712948141234,"71":-0.030556406051814422,"72":0.09323369261566136,"73":-0.016888331998869893,"74":0.054482666348652974,"75":0.14154454494782062,"76":0.040127618758481684,"77":0.025064886127002042,"78":0.11803904238110328,"79":0.10019516918804851,"80":0.01994947407929886,"81":0.15429913194984346,"82":0.11064766103510297,"83":0.06469042338840023,"84":-0.08294270933854955,"85":-0.04665074487719723,"86":0.09528519839823668,"87":0.09095514222572632,"88":0.11145876235766931,"89":0.08808033613787161,"90":-0.02080045805631504,"91":-0.11127453134126085,"92":-0.00854426518137532,"93":0.05209977077801406,"94":0.04053555618121327,"95":0.0027356595129436607,"96":-0.0021777104215359657,"97":0.04726373659536342,"98":-0.0019284879204672259,"99":-0.07430141973533966,"100":-0.0006688460066260938,"101":-0.025654254029102055,"102":0.08576121250087629,"103":0.030528836049631757,"104":0.07790244300001624,"105":0.17991866820377403,"106":-0.0022035861350348167,"107":0.045709993254836635,"108":0.045916086786995935,"109":0.039846601401497775,"110":-0.053918967466535746,"111":0.10738621925596421,"112":-0.10509424869749422,"113":0.09677454186591268,"114":-0.010998681124744112,"115":-0.0031500025151364156,"116":-0.015010834476403752,"117":0.04319046585020606,"118":-0.03915431098052084,"119":-0.010178467346444798,"120":0.06496982011582435,"121":0.07859324453133334,"122":0.1091770364898137,"123":-0.010005416404930231,"124":0.0022594110118269155,"125":0.026966900157629946,"126":0.029621214566870672,"127":0.012904316429740345,"128":0.02740553148297815,"129":0.04690258908587322,"130":-0.0335255325459147,"131":0.08338767856666535,"132":-0.007436089834556619,"133":0.02145072092905219,"134":-0.006941057712391922,"135":0.13113629874185587,"136":0.1172481796588388,"137":0.08654830531384464,"138":0.03229131186561773,"139":-0.06229813475018688,"140":-0.07454315281265804,"141":-0.001980504568951658,"142":0.004389207150904759,"143":0.22643680371044375,"144":-0.046655927021277056,"145":0.01569074423366753,"146":0.03120217262207672,"147":0.027549904393630063,"148":0.028817769501644573,"149":0.025526917140140073,"150":0.18658777814382513,"151":0.07365240050301217,"152":-0.0913635640841901,"153":0.062133544362689204,"154":0.02762913469357542,"155":0.05406860156135534,"156":0.1869371600631188,"157":0.052446976297219665,"158":-0.028809592617130557,"159":-0.031669957892382215,"160":-0.10858334340346155,"161":-0.07211125910525802,"162":0.08983868271083538,"163":0.20115120054447821,"164":-0.03968614248132626,"165":0.027100880263257052,"166":-0.04597398742630312,"167":-0.06223994985206519,"168":-0.059582924579050664,"169":0.09640568815115196,"170":0.07278771173370305,"171":0.026660575594963588,"172":-0.04720328029891753,"173":0.12248403260426988,"174":-0.011184182118305918,"175":0.010796037540343553,"176":0.004302455947389405,"177":0.06364032771992373,"178":-0.06423435264420156,"179":0.010992482912343924,"180":-0.006057955222256471,"181":-0.06653313139143108,"182":-0.09665672983800755,"183":0.11077055705251797,"184":-0.04388366595988198,"185":0.01728854182263487,"186":0.07633296853414903,"187":0.04136103963545089,"188":0.04357964279567712,"189":0.10314938095980755,"190":0.06238879136351852,"191":0.06443292754810326,"192":0.05239384115859875,"193":0.007786946863224052,"194":-0.028501249757066145,"195":-0.08665135768356498,"196":0.15167849549633575,"197":0.02367644272880473,"198":0.12803125737793128,"199":0.09249898410586363,"200":0.14589437153518292,"201":-0.10710636430281889,"202":-0.19567717995898853,"203":-0.021666062007125852,"204":-0.052240642488114254,"205":0.10418460278852455,"206":-0.05735795910227096,"207":-0.07603863135067829,"208":0.09762374793388987,"209":-0.11867394281968241,"210":0.135104132040676,"211":0.05582017639245646,"212":0.06953109902004848,"213":-0.11179853823767552,"214":0.027454752678740143,"215":-0.03317402812418454,"216":-0.010672470898963898,"217":-0.04053656146847906,"218":-0.004580792545824851,"219":0.2023761490411559,"220":0.02290362606405188,"221":0.1752610254336012,"222":-0.02145622249605296,"223":-0.09885910608881335,"224":-0.08095348969190853,"225":0.05895773909406009,"226":0.011311773558822633,"227":-0.05479393520941939,"228":0.18369457868295996,"229":-0.024114676558188223,"230":0.014732586953698371,"231":0.028758574638526553,"232":0.07644286140754616,"233":0.07459356789904309,"234":-0.09355455490625603,"235":0.04830974408191753,"236":-0.035047567935063174,"237":-0.031096579756764168,"238":0.02724424672269482,"239":0.00015373284668801415,"240":0.30040748798484135,"241":0.03576941193618196,"242":0.015713854136364894,"243":-0.049268524533518036,"244":0.08633731393424104,"245":0.17350417544324653,"246":0.027737913436046525,"247":0.2053002526961972,"248":0.06259664963971083,"249":-0.028456470796870314,"250":-0.010263478094076848,"251":0.1590877602811651,"252":0.12193705690765422,"253":0.1784373181458976,"254":0.14992105683316248,"255":0.038190160623072504,"256":-0.0681860363908104,"257":-0.08125697950506963,"258":0.03011466086969582,"259":0.1258120950843543,"260":0.016557181218449266,"261":0.04691166210304844,"262":0.1172183726789429,"263":0.05526897591546593,"264":-0.09326088862075257,"265":0.0049013319364390375,"266":-0.026444540635476063,"267":-0.005523563243149849,"268":-0.1569083117748698,"269":0.08060669480050722,"270":0.05187127664826547,"271":-0.2520483548032444,"272":0.08235434308972668,"273":-0.09306568356118596,"274":0.002942943792031591,"275":0.0968261516981926,"276":-0.04959957040533152,"277":-0.13542037806270085,"278":-0.2780910665018444,"279":0.10287195903005796,"280":0.0174639727685935,"281":0.008311748216106904,"282":0.10141116896128427,"283":-0.25378061704198596,"284":-0.013484571897532356,"285":0.010180983718733806,"286":0.047744435523940885,"287":-0.021311199013294434,"288":0.09269722984325815,"289":0.19914290970472978,"290":-0.1963363110492587,"291":-0.1606788387112532,"292":-0.2304328931765558,"293":0.10597864258475725,"294":-0.0022759049500416404,"295":0.05638475754538259,"296":0.19694346613961744,"297":-0.2618013730846248,"298":-0.11893011324314375,"299":0.02051735750283066,"300":0.16205872708609284,"301":-0.14034133517425984,"302":-0.07045763454414976,"303":0.2051174029274424,"304":0.026393042134588488,"305":-0.16013795363493233,"306":-0.0013808961005805857,"307":0.060498906827010666,"308":-0.07892890413302912,"309":-0.03243432865456259,"310":0.37956616970356993,"311":-0.10910131070130004,"312":-0.21107727370576773,"313":-0.10593352352223548,"314":0.2696636606187117,"315":-0.07642477711279991,"316":-0.03599718013866068,"317":0.3753027978624605,"318":-0.008589821680774143,"319":-0.34497560695777185,"320":-0.18247872884747793,"321":0.08672231983758993,"322":0.04466608350420975,"323":0.05554152975372818,"324":0.35344100732454914,"325":0.009742373304948631,"326":-0.46346679103855726,"327":-0.15647032681928463,"328":0.05378769475021756,"329":0.08479339423428892,"330":0.04164366064807101,"331":0.5319223767435115,"332":-0.421297020244124,"333":-0.3988877583172144,"334":-0.08770636113284906,"335":0.11032340120026789,"336":0.17069601206101534,"337":-0.021432614730979325,"338":0.5492865739060983,"339":-0.4883670199734173,"340":-0.25624764156498403,"341":-0.21965195069567897,"342":0.08004011710761783,"343":0.037947144477662516,"344":0.06539324041224047,"345":0.5675743822201217,"346":-0.4706249499668959,"347":-0.27435156006609573,"348":-0.2057382599164041,"349":0.10224633114935941,"350":0.07500897198892972,"351":-0.08047305444708315,"352":0.4289539606636295,"353":0.005583512842398623,"354":-0.22495801818802538,"355":-0.1822183095032029,"356":0.10689835196443209,"357":0.06127239000176947,"358":0.022121442889694237,"359":0.4680714122695585,"360":0.07661202651752964,"361":-0.017684328473495665,"362":-0.09037065385734752,"363":-0.08282470659842325,"364":-0.007601576522916835,"365":-0.007739416538897433,"366":0.42487963162244746,"367":0.04975180677754312,"368":0.03885619729383566,"369":0.053574551021702464,"370":-0.10174411574170948,"371":-0.044170189031162745,"372":-0.05945855376367743,"373":0.6588437615668373,"374":0.013150158843707302,"375":0.009277798725723763,"376":0.06560615403276165,"377":-0.01877423325184748,"378":0.08164761229992207,"379":-0.017312771085211814,"380":0.20253303845269152,"381":-0.5488392909418066,"382":-0.05553686610645915,"383":0.1998271121516404,"384":-0.06351936093112609,"385":-0.05385440843292195,"386":-0.13525308567398314,"387":0.14389807943981417,"388":-0.5660194604738615,"389":-0.07169980263656728,"390":0.19526981228077006,"391":-0.05316100226690651,"392":-0.08090334270199732,"393":-0.09755208319029454,"394":-0.0182263678871217,"395":-0.4544253224605087,"396":-0.006006406743482382,"397":0.0980844040256823,"398":-0.0797832831403916,"399":-0.05782303676039948,"400":-0.10508212794810647,"401":-0.27093160836068814,"402":-0.3059250393758586,"403":-0.15282539925087113,"404":0.10731137607192481,"405":-0.1343845563510417,"406":-0.06449203872434547,"407":-0.19650443824970443,"408":-0.03239574562729542,"409":-0.25125738157079475,"410":-0.0017333594400184807,"411":-0.0025337418812740866,"412":-0.03091066314606928,"413":-0.03362368379099789,"414":-0.03194491013783552,"415":0.011447397791511823,"416":-0.34324436299802624,"417":-0.1469787153993897,"418":-0.04715730654001524,"419":0.13377586662071655}},{"sx":1,"sy":1,"depth":420,"w":{"0":0.18443143917929486,"1":0.17434601843462375,"2":0.1897966872596315,"3":0.06618042387775014,"4":0.03838675940810588,"5":0.024683289213987505,"6":-0.016750173449349696,"7":-0.07104228432066059,"8":-0.01235083376790416,"9":0.04408189715625321,"10":0.10403930591042358,"11":0.04936686985814412,"12":-0.004143726871614173,"13":-0.07565238888738052,"14":0.11042561442366122,"15":-0.01635673782422234,"16":0.11629658212234532,"17":0.044407738597474496,"18":0.07626138467221089,"19":-0.025856089710045046,"20":-0.07793671998111294,"21":-0.0006790157398684071,"22":-0.11873232578239305,"23":-0.02680262109018827,"24":0.016770930202554726,"25":0.11142552781150858,"26":-0.020800503099625205,"27":0.041040742548712005,"28":0.015055675884527971,"29":0.10461281889440047,"30":-0.012774053612955735,"31":-0.06025577781216372,"32":0.11037832581289098,"33":0.08051968683008069,"34":0.047887015023430894,"35":0.1606061427348788,"36":0.07439388202226867,"37":0.05051489528921368,"38":0.10472864644011197,"39":0.06438734392790248,"40":-0.08823851727919958,"41":-0.04859687707726349,"42":0.023580105047228798,"43":-0.16681751536262188,"44":0.06618668101783785,"45":0.15499886028590618,"46":0.03837502161119297,"47":-0.07889871292945187,"48":-0.052646238634448825,"49":0.06843314432253196,"50":-0.08802395582983238,"51":-0.06342771118287384,"52":0.2751383925015471,"53":0.051749056578475644,"54":-0.15939708418125434,"55":0.05761227998004031,"56":0.07321740131909373,"57":-0.022878654969638063,"58":0.09443170155944008,"59":0.2803876753745231,"60":-0.023714512892380534,"61":0.04039293732814429,"62":0.12604993386049781,"63":0.033002102097035635,"64":-0.16176050619787619,"65":0.02042518521946008,"66":0.1481776663792279,"67":-0.04427880428852735,"68":0.04243698381004839,"69":0.18459334220927962,"70":-0.009616389906881172,"71":0.0006298867775096998,"72":0.08128400541007713,"73":0.15035311421526915,"74":0.12162281513064252,"75":0.1509245615779114,"76":0.11937800904650414,"77":-0.07944586394276652,"78":-0.18819686841175542,"79":0.0844474920747245,"80":0.06606374746793633,"81":0.129429058902433,"82":-0.05176222247550912,"83":-0.01267491565191969,"84":-0.11918880188553235,"85":0.036871364655841024,"86":-0.0032811992163801137,"87":0.17892755240833594,"88":0.2787066882267728,"89":-0.012021914141432551,"90":0.07756652598302034,"91":-0.09574575692681624,"92":0.06587309763750626,"93":-0.027763591110428115,"94":0.22174694283791493,"95":0.19208020234765885,"96":-0.07260079556110463,"97":-0.052710225276569746,"98":-0.026630770531685527,"99":0.016112227946288162,"100":-0.05441577676822498,"101":0.247243279813124,"102":0.017935125384994904,"103":0.0994376865290026,"104":0.08274245445144973,"105":-0.15955001095875554,"106":-0.03807982641783971,"107":-0.03933589768958454,"108":0.18789956136927022,"109":0.018370300354633697,"110":0.24637757062410195,"111":0.06644175445547838,"112":0.015122019639443068,"113":-0.10364793192351825,"114":0.056444855860517854,"115":0.13561680784707394,"116":-0.05467689915442928,"117":0.005382854114839043,"118":0.11375050709402719,"119":-0.019389218618797898,"120":0.03829931475931955,"121":0.02727920348660317,"122":0.0715376341397155,"123":0.00485881700098145,"124":0.06606410878856767,"125":0.024578548396324992,"126":-0.05989391201093161,"127":0.1697066055951457,"128":0.15477455661909026,"129":0.0869437550465378,"130":-0.14580950565099476,"131":0.12903244332609715,"132":-0.062429125767365916,"133":-0.0692355375620434,"134":0.14307172492587547,"135":0.0778170270281638,"136":0.10209107301270533,"137":-0.09086404644288355,"138":0.2537859809199473,"139":-0.05684782242958582,"140":0.041311632521578344,"141":0.16415068442333253,"142":0.17032087750491004,"143":0.08276171776908967,"144":-0.06959385923088708,"145":0.19893286044770564,"146":-0.13254883885699392,"147":-0.0878193436783334,"148":0.05869318694466494,"149":-0.04630406317640858,"150":0.0876073434418502,"151":-0.08664121722162947,"152":0.18437452786196593,"153":0.009157890364158863,"154":-0.08054861453386312,"155":0.030068274169485088,"156":-0.09238493054785833,"157":0.1443467784848619,"158":0.03634861645037842,"159":0.09305327254943517,"160":-0.03056334379893655,"161":0.07647592270714566,"162":0.18392825960108966,"163":0.09081498175234466,"164":0.14256390190266333,"165":-0.09932316454938328,"166":0.03772991358237529,"167":-0.10013470620219496,"168":0.07103339900929184,"169":0.2563220232186258,"170":0.053723471070207904,"171":0.01643041929087325,"172":0.1907349701821049,"173":0.2683708839221301,"174":-0.00864835206889553,"175":0.07439346735831433,"176":0.1784614387579117,"177":-0.05232742990338088,"178":-0.07095970271175182,"179":0.2022429744113886,"180":-0.028606414387506007,"181":-0.08838754392784821,"182":0.09182691155029836,"183":-0.13024266754548042,"184":0.05639580916492114,"185":-0.05940259730128263,"186":0.11305370054245731,"187":-0.05869815018154842,"188":-0.014400003655061696,"189":0.1374196612968016,"190":-0.018054457617259854,"191":-0.07039608606464516,"192":-0.19249463614602735,"193":0.06539548291097998,"194":0.005349263600797363,"195":0.19012434864689978,"196":-0.13575593539459727,"197":0.005134075928304774,"198":0.040793897291316224,"199":-0.05188815350897668,"200":0.06886525972389072,"201":-0.15454849229333303,"202":0.11402402290505208,"203":-0.0664980668805853,"204":0.01854613032634531,"205":-0.07115516329577928,"206":-0.15536544421459653,"207":0.018389611299310465,"208":-0.011352347612263974,"209":-0.06753345343197507,"210":0.04713258702503995,"211":-0.09141658966647383,"212":-0.06738892463476763,"213":-0.22770052946341884,"214":0.11263576097783555,"215":-0.05119921677967465,"216":0.006575977431053433,"217":-0.09245048430483085,"218":-0.22454248325836124,"219":0.04148148602166918,"220":-0.1555269338694749,"221":-0.11753456382055809,"222":-0.13309330480761125,"223":-0.08688779483357646,"224":0.1347730978792765,"225":-0.1054152395956833,"226":0.20175150302642691,"227":-0.2197526617428879,"228":-0.10397983478778773,"229":-0.1262357364482489,"230":-0.1311483519982389,"231":0.0629654825612465,"232":-0.11432577816720162,"233":0.0923670915468725,"234":-0.13296742271986792,"235":-0.2721801723187452,"236":-0.036027389595674975,"237":-0.18210031379976532,"238":-0.07749299351379497,"239":-0.14001555369761842,"240":0.01543902609517887,"241":-0.017599072427897017,"242":-0.4392625822749768,"243":0.030435077791676188,"244":-0.02051185007132989,"245":-0.03736147968852436,"246":-0.09916195925275173,"247":-0.013656872862070136,"248":-0.01668777881312891,"249":-0.15165221662186,"250":0.04424618377956777,"251":-0.20257755181233425,"252":-0.03274158692896962,"253":-0.04584793228827185,"254":-0.266811670917491,"255":-0.12851456854289584,"256":-0.13600968651396791,"257":-0.054839018539261875,"258":-0.22266108182258187,"259":0.10043535517754414,"260":-0.027202196135626695,"261":-0.09832354778429177,"262":-0.2638950835404415,"263":-0.12858849873127653,"264":0.020262577379000824,"265":-0.10631257851305785,"266":-0.0763813870515514,"267":-0.006562085958967123,"268":-0.2500630800069291,"269":-0.2702448954548045,"270":-0.16748892432610873,"271":-0.06868604480922938,"272":0.014461891849330813,"273":0.03691425945831926,"274":-0.11341541185402722,"275":0.0914381397291377,"276":-0.4382962863827056,"277":0.008587491546234552,"278":0.02636214411105104,"279":0.011614487058366959,"280":-0.20020354421002093,"281":0.05186426541167514,"282":0.12403797748369264,"283":-0.5040857763940219,"284":0.00853027044564192,"285":0.12870699541817432,"286":-0.1087896309471818,"287":-0.12406271383136043,"288":0.0674093511231532,"289":0.00933203776062776,"290":-0.4400000448536565,"291":-0.00040710139338177213,"292":-0.00869688984193557,"293":0.0248624928018616,"294":0.03503135801116128,"295":0.038889790860149584,"296":-0.0529829265569926,"297":-0.34363665650575875,"298":-0.040901275246342385,"299":-0.09794972635255934,"300":-0.029307590388349947,"301":-0.10814251027876724,"302":-0.04444232702443443,"303":0.17935870654033745,"304":-0.5988257782911903,"305":0.15179486843948956,"306":-0.031642792837403406,"307":-0.07303675311809434,"308":0.18797840999658766,"309":0.11418342868193877,"310":0.11037340293679065,"311":-0.2787307965125531,"312":-0.15128954142143264,"313":-0.16112178110888953,"314":0.0382745505122995,"315":0.13128949395880052,"316":0.06010077338966288,"317":0.22563259232111568,"318":-0.4025647978474198,"319":-0.18695840861561447,"320":-0.24461719462550024,"321":0.020387728719777818,"322":0.13869552689634676,"323":0.0009659817046107846,"324":0.2838264087750898,"325":-0.4066579020740128,"326":0.010436226248800971,"327":0.015421587613206266,"328":0.03441679591617861,"329":0.11932406748053001,"330":-0.10228620212837952,"331":0.012579970070432328,"332":0.16760907515491297,"333":-0.01104024295300187,"334":-0.05488083698293649,"335":-0.015636347498684804,"336":-0.012846217472288377,"337":-0.11224186605014443,"338":-0.12860525628550384,"339":-0.06964984620375168,"340":-0.048246368697278094,"341":0.08250298834743068,"342":0.12974355026416126,"343":-0.021623716583938857,"344":-0.11653049319292988,"345":0.13598728741661845,"346":0.21498386653337376,"347":0.054383447262291905,"348":0.010968112591529383,"349":0.06333212518269564,"350":0.0997329711316723,"351":-0.013361770034407229,"352":0.26721630339299823,"353":-0.11936407851222815,"354":0.18903571153359103,"355":-0.06396349062516639,"356":0.2293281150590691,"357":0.04759437560203135,"358":-0.033648460506664736,"359":-0.16149397302146898,"360":-0.16366757568618334,"361":0.0017364746812410909,"362":0.047588733150324365,"363":0.09824423823680402,"364":-0.12454937242257219,"365":0.05278369621589352,"366":-0.24934506830292325,"367":-0.08454572547762654,"368":-0.1458922236588675,"369":-0.11315893189979558,"370":0.07402628787274038,"371":-0.1082961887670799,"372":-0.003577205237474205,"373":-0.288831327710633,"374":-0.16365901349656692,"375":-0.3657547808506499,"376":0.07781246970070928,"377":0.09074261599272017,"378":-0.1196840603329379,"379":0.10774526617953435,"380":-0.2677562853260503,"381":0.3663120033548025,"382":-0.09159226989728798,"383":-0.036789973394978706,"384":0.16762032056946238,"385":0.08769634823693434,"386":0.03722607168177355,"387":-0.15027693495679978,"388":0.23155452982083743,"389":-0.19897730244430437,"390":0.1046461064298202,"391":0.06581052659683818,"392":-0.1253237753142757,"393":0.12193000453684284,"394":-0.18293910698151541,"395":0.17347521195682358,"396":0.08482089367243215,"397":-0.09540459437608032,"398":0.04931812130274135,"399":0.0865437258073191,"400":0.21878423344313178,"401":0.011021688335921079,"402":-0.12956523289137475,"403":0.008381406988154927,"404":0.16068214102854986,"405":0.1413846152439957,"406":0.09153169498258806,"407":0.07574354107418822,"408":0.01143512649523131,"409":0.0764596026674918,"410":-0.15765965272492893,"411":0.05907315837329597,"412":0.0788935888162039,"413":0.05244262427212307,"414":0.0438570532822212,"415":0.15384129921246723,"416":0.19924906271337758,"417":-0.006616841964508006,"418":-0.044089267371212465,"419":-0.02701631302800083}},{"sx":1,"sy":1,"depth":420,"w":{"0":-0.18805908568395943,"1":0.1714598940215485,"2":0.1529791707861148,"3":0.03903436942687334,"4":0.02048541945952958,"5":0.12309616951499468,"6":0.036072118973720056,"7":0.06370030494959032,"8":0.009084441458784781,"9":0.0014021560066501968,"10":-0.12941980553591714,"11":0.04460560625710762,"12":0.05137636326824679,"13":-0.04851451944933663,"14":0.033095322047718666,"15":0.0457081038109598,"16":-0.08987733652657183,"17":0.00007729950253838246,"18":0.20830231588053938,"19":0.001674995617528898,"20":0.019554505306523008,"21":-0.06879406936460172,"22":0.19950703352862048,"23":0.018062590044022157,"24":-0.022130196991465192,"25":0.022613169526639405,"26":-0.036835255385250266,"27":-0.08129017865962138,"28":-0.03914855712819887,"29":-0.03923848830317019,"30":-0.10759425237807797,"31":-0.059320422972679705,"32":-0.010629684962710094,"33":-0.01830065576721174,"34":-0.02105523062147639,"35":0.014300745742255252,"36":0.018303812684397208,"37":0.0525565437619702,"38":-0.15411056024845154,"39":-0.015073343414224304,"40":-0.0005381192218646314,"41":0.07285144273093591,"42":0.07663748710254961,"43":0.07370094353268512,"44":0.10130626630263051,"45":0.029764598296965216,"46":-0.12796278762447963,"47":-0.17002602169328143,"48":-0.11128616224931713,"49":-0.03973291226808226,"50":0.039394898056191896,"51":-0.020940820760970164,"52":-0.08918315030760157,"53":0.013087798104136381,"54":-0.13786360365768263,"55":-0.03456419512845413,"56":0.0654369621160938,"57":0.15102113589446836,"58":-0.007482252656430646,"59":-0.09714690870642913,"60":-0.09885945219908684,"61":-0.129518280104544,"62":-0.025431293526689477,"63":0.007315428579739937,"64":0.07977550074345312,"65":0.07639713724308661,"66":0.02036892610885601,"67":0.1515693482177224,"68":-0.11955171704700032,"69":-0.0054179268837152555,"70":-0.15186512205528221,"71":0.012005910133992945,"72":0.09209948231565862,"73":-0.10753809105798579,"74":0.06689744491438973,"75":-0.10580413889394205,"76":-0.09243565929202342,"77":-0.05020550999606055,"78":0.13407642173900178,"79":0.1590994707742956,"80":-0.1100637455170414,"81":0.12489805206069825,"82":-0.03958815016300649,"83":-0.05039393856411353,"84":0.005330052505138903,"85":0.2547059977088844,"86":0.043978990586648926,"87":-0.0707107987045688,"88":-0.03425800809679932,"89":-0.17215157153921806,"90":0.00565747199681345,"91":-0.14178216218372697,"92":0.2503341677109455,"93":0.08619441682355417,"94":-0.15739318448304365,"95":-0.025223637299845343,"96":-0.07512043346917807,"97":-0.04360552248719063,"98":-0.148708978038426,"99":0.11078588678801984,"100":-0.04410095135815556,"101":-0.11942415086163138,"102":-0.0149012542336636,"103":-0.14038761044248768,"104":-0.07215502594725476,"105":0.0040610006186312594,"106":0.16674159979318928,"107":0.013351558465550613,"108":-0.1427495139845537,"109":0.01629486620395308,"110":-0.06277877822687093,"111":0.021165578501266727,"112":0.020591325611495376,"113":0.13339742792319012,"114":0.14768623631206299,"115":-0.22090607640830032,"116":0.04017513092727086,"117":0.04892025597023487,"118":-0.030636685348800086,"119":0.0638573736919544,"120":0.03558336999744477,"121":0.019214574690898455,"122":-0.15510828848762753,"123":-0.1747835242311884,"124":-0.0077815572360757715,"125":-0.09348269237311264,"126":-0.0168276252297468,"127":0.056499894787004144,"128":0.02587075328086261,"129":-0.23344055681677484,"130":-0.25907328473781266,"131":-0.10758475206322068,"132":-0.05425107619198071,"133":-0.009004958904393175,"134":0.11604308218906112,"135":0.10411647111873944,"136":-0.3204345932256449,"137":-0.07654685975018599,"138":-0.12877228892570045,"139":-0.12595545322850307,"140":-0.04228350035519798,"141":0.03667302788044897,"142":0.05802446380376672,"143":-0.2597935970366051,"144":-0.21914544845038902,"145":-0.28745636864846064,"146":-0.08865774155822549,"147":-0.02181068622909249,"148":0.03996055335868494,"149":-0.014096100264872269,"150":-0.1906697616807705,"151":-0.1516301170597677,"152":-0.31511123999813695,"153":-0.1234667177410122,"154":0.02634503879262088,"155":0.12052212819386161,"156":-0.1741260019258764,"157":-0.2821863658766638,"158":-0.05733781709965828,"159":-0.15723587167592487,"160":-0.06983624423657116,"161":-0.1025295070651851,"162":-0.02789860220779017,"163":0.1045935438004131,"164":-0.23360489143428292,"165":-0.17944185089681972,"166":-0.19216772512342925,"167":-0.13048176474044723,"168":-0.0510385432184682,"169":0.06217563609779612,"170":-0.07651716222327541,"171":-0.18077844369595125,"172":-0.148777518638265,"173":-0.13610246272840937,"174":-0.012822962118825165,"175":-0.17854542644681598,"176":0.07429846955851217,"177":-0.18483003574128737,"178":-0.2926023167903374,"179":-0.25447317746764514,"180":-0.07175932327561445,"181":0.06629949240788459,"182":-0.03479699465585203,"183":-0.11650577979809715,"184":-0.032479761219559505,"185":-0.19607183344851029,"186":-0.2868044364125703,"187":-0.15100816580277365,"188":-0.011412143772016962,"189":0.10562924707273764,"190":-0.08512661245778898,"191":-0.12423276485803642,"192":-0.21903376263148241,"193":-0.29669476783735993,"194":-0.1851600144355676,"195":-0.03686410225826377,"196":0.13533478302501747,"197":-0.03721094164972712,"198":-0.11976379174666232,"199":-0.3514146411423094,"200":-0.2923923649394721,"201":-0.10819871236701276,"202":-0.03897710665443452,"203":0.24768690232914853,"204":-0.06476457081397653,"205":-0.011715424354594967,"206":-0.2597585624839792,"207":-0.3433801195988772,"208":0.10785063026545896,"209":-0.08883778642551644,"210":0.04110202570311903,"211":0.05660344038911096,"212":-0.19627062152068397,"213":-0.352019813100574,"214":-0.06577418001000321,"215":-0.02533563894895199,"216":-0.05905671993848011,"217":0.14676325566376144,"218":-0.040435032412117176,"219":-0.13725939988498453,"220":-0.4229639899901616,"221":-0.14638070853343918,"222":-0.15691181969693016,"223":-0.018393218725105662,"224":0.017837925548022347,"225":0.1380174475065719,"226":-0.025458614492594636,"227":-0.2948683491800875,"228":-0.209301040658032,"229":-0.15482498513063317,"230":-0.004824383273740557,"231":0.14249571761613283,"232":0.13680240290040022,"233":-0.13622510422787612,"234":-0.38046468555889645,"235":-0.1109369870942272,"236":-0.15087261565687754,"237":-0.06132269519897629,"238":0.26683033132601447,"239":0.0936211655177154,"240":-0.15487945307769985,"241":-0.15070669881747958,"242":-0.12599211578988415,"243":-0.1454729602937718,"244":-0.008258811974815507,"245":0.04554486238339634,"246":0.08401769354395403,"247":-0.2596257781563143,"248":-0.09578280796815432,"249":-0.13625442946445657,"250":0.020595328657261446,"251":-0.024201372354632728,"252":0.009138323207769467,"253":0.12823493381053272,"254":-0.1465985055093854,"255":-0.22292223663861027,"256":-0.07009092115091453,"257":-0.06645402101924879,"258":0.026073919628709384,"259":-0.12104411420935411,"260":0.1610606358834484,"261":-0.0691262045475235,"262":-0.1979553635483473,"263":0.08630971664593372,"264":0.03709654125910857,"265":0.12426394393514932,"266":0.040426162933737186,"267":0.12593934197048057,"268":-0.12680029193191342,"269":-0.23199998556670956,"270":-0.10174412001537148,"271":0.004725002269214864,"272":0.09143693944714572,"273":0.04272344560634169,"274":0.13078226958122932,"275":-0.055469167788286214,"276":0.08839039663354833,"277":-0.04403244128070164,"278":0.04992008596063703,"279":0.11723593211192919,"280":0.13189247221838676,"281":0.35893212295573185,"282":0.0319378408875418,"283":0.01787259117330065,"284":0.06052518382745744,"285":0.14669636054260715,"286":0.10624073947126307,"287":0.1847628919240387,"288":0.25168211393633466,"289":-0.26194731919181347,"290":0.006568234617511025,"291":-0.01805748664228321,"292":0.18764516862429023,"293":0.09251480345134475,"294":0.047620215595842966,"295":0.05035314328447017,"296":-0.1772339557175608,"297":0.13155845980398156,"298":0.1536923594519852,"299":0.09070224396700062,"300":0.01580876541778264,"301":0.13918594053325614,"302":0.20255798109787698,"303":-0.02615189062426942,"304":0.16385780182074744,"305":0.21242787042104663,"306":0.06021381061090945,"307":0.09029009356431651,"308":0.033950431840321676,"309":0.09994428693275356,"310":-0.05028313202913066,"311":0.24307171923060217,"312":0.17822654946996458,"313":0.26332895704158416,"314":0.0032244373130134625,"315":0.22820609425767002,"316":0.2002926272964145,"317":0.14914672917974697,"318":0.24799696861970422,"319":0.13734545467841947,"320":0.301332637380391,"321":0.02113639393378892,"322":0.06912787923607532,"323":0.08506245871973842,"324":0.18905078353586177,"325":0.0948285094819102,"326":0.27361640866178144,"327":0.3201856539155806,"328":-0.023357363689160415,"329":-0.05889378211934354,"330":0.2120620769326641,"331":0.12524761079169802,"332":-0.17588420541752564,"333":0.22529182450334462,"334":0.2713722185502982,"335":0.025907570049291832,"336":-0.11163712444449357,"337":0.044818717358101924,"338":0.04871268928205901,"339":-0.09239803750557592,"340":0.36574061017373594,"341":0.17340769879713494,"342":-0.03778089641619952,"343":-0.09992203977909218,"344":0.1181541381517202,"345":0.10024886065910056,"346":-0.07471341277069217,"347":0.28159574320506064,"348":0.1419165961814942,"349":-0.022641957856750196,"350":-0.07579527473698144,"351":0.29036146698641074,"352":0.09201035231140241,"353":-0.10621803785108494,"354":0.14952984791839158,"355":0.21924280046765243,"356":-0.05884003661028793,"357":-0.05899951698096932,"358":0.15466849611232883,"359":0.012810094010707799,"360":-0.06489418983284449,"361":0.253847056587506,"362":0.20141663647483768,"363":-0.05011200882280821,"364":-0.11185154000911415,"365":0.035465420655599995,"366":0.16608646304381203,"367":-0.04196927683949311,"368":0.25838524521965633,"369":0.13333018268648714,"370":-0.07711836434711551,"371":-0.07030647957929906,"372":0.04431493097951569,"373":0.21152457692640955,"374":-0.1029849515274697,"375":0.17350034858232669,"376":0.14555582016765076,"377":0.05796671749537446,"378":0.00432954524025622,"379":0.20538358695981088,"380":0.12832638999651447,"381":0.053059520774019424,"382":0.17795861639127925,"383":0.1481594054989216,"384":-0.06285506582946403,"385":-0.18286137715484124,"386":0.09639478638162123,"387":0.25282398736792583,"388":0.09174243215575861,"389":0.09265237005026175,"390":0.1375406617758984,"391":-0.04966729328754212,"392":-0.07289699577308424,"393":0.1930574423679624,"394":0.00893453848347448,"395":0.07860148943509385,"396":0.03226573471691642,"397":-0.04937162704776509,"398":0.0822175890842357,"399":-0.04796738115585805,"400":0.09557106903846797,"401":0.10107836416563723,"402":-0.1061498847726886,"403":0.04992784936342744,"404":0.07453547434654893,"405":0.017501641622740864,"406":0.05508370703489526,"407":0.22904189108672854,"408":0.026856574330284648,"409":0.35637306615664693,"410":0.12937023103519943,"411":0.05839533620759368,"412":-0.029213725844330587,"413":0.16719722646688914,"414":0.26210612823948304,"415":0.12711629774528924,"416":0.13050993000814323,"417":0.1125566411667039,"418":0.18085187774732975,"419":-0.03782181678283996}},{"sx":1,"sy":1,"depth":420,"w":{"0":-0.0010842754223714074,"1":0.2349349887977439,"2":0.14302264739036788,"3":0.017460516931365924,"4":0.13582983465431617,"5":-0.014838760437692727,"6":-0.24138364948381955,"7":-0.08416645909357061,"8":0.23986663104271386,"9":-0.024047961871450228,"10":0.04414413863380942,"11":0.07502368904468726,"12":0.11614724941902532,"13":-0.11664156189273711,"14":-0.07461805095325012,"15":0.08727056963537293,"16":-0.05765301595824688,"17":-0.006940746363218594,"18":0.006392175561209705,"19":0.07754098519730902,"20":0.007704325833591392,"21":-0.10478315111837999,"22":0.057459045782313624,"23":-0.12720719194264224,"24":-0.060897788494593465,"25":-0.03225478512079905,"26":0.03774088431945484,"27":0.020577717322307107,"28":0.11312951510898163,"29":-0.05680681285198326,"30":0.21323982637833336,"31":0.12575989097823853,"32":-0.23370191203893045,"33":0.19068978460849387,"34":-0.03284632968628848,"35":0.23989708515842267,"36":0.08799575314156281,"37":0.01824403929393341,"38":-0.02701706504658219,"39":0.20067569330691223,"40":0.1336241596606602,"41":0.034242712006232155,"42":0.07811171614216131,"43":0.008785396727390834,"44":-0.01649292391832568,"45":-0.13799886192063376,"46":0.0906927922962112,"47":0.2883747369420386,"48":-0.020372548144604007,"49":0.08447853516911027,"50":-0.06686459223149029,"51":-0.09497703973623496,"52":-0.0640122306540472,"53":0.06571338175660933,"54":0.22964523048167287,"55":-0.1087614895131427,"56":0.08593113009317185,"57":0.031529654110043305,"58":-0.045461282264574895,"59":-0.08296146399038093,"60":0.1700616157789853,"61":0.3278420460294534,"62":-0.0911050931058654,"63":0.01676928846321631,"64":0.007622791309419202,"65":0.12713160933508003,"66":-0.10448174388030894,"67":0.2089628775096546,"68":0.16033954782874693,"69":0.061558020460073616,"70":-0.019583585284622753,"71":0.003065368825094495,"72":0.09166212387903841,"73":-0.10278515636656016,"74":0.13599406215129115,"75":-0.040686572170367766,"76":0.07302039634416246,"77":0.05149989688538834,"78":-0.07585895211502569,"79":0.12245135383455445,"80":0.007453738525096065,"81":0.21863310861321913,"82":0.0666207193530233,"83":0.09711873653051048,"84":0.02655773390902876,"85":0.0828873360553316,"86":0.01610934029865096,"87":0.20001054374076346,"88":0.2192286920069367,"89":0.10122363110859038,"90":0.16603472254717336,"91":-0.022669249839488814,"92":0.0016754649351552252,"93":-0.06742568356830779,"94":0.011428771987357308,"95":0.14784649450319187,"96":-0.06877929118317674,"97":-0.03747370664793568,"98":0.0016913328534995387,"99":-0.15489214184454878,"100":-0.081834676559743,"101":0.10353431519495133,"102":0.08913589669544579,"103":-0.03638211302149175,"104":0.21240269074697382,"105":-0.02981150874063584,"106":0.10852770495968853,"107":0.02754525902800405,"108":-0.012758471692684464,"109":0.16915777246304656,"110":-0.07893969188949478,"111":0.07268521271288557,"112":-0.11286249164224542,"113":0.007347046008476343,"114":-0.03360119959008113,"115":0.14033245391445084,"116":0.1090705621299702,"117":-0.0318060766132836,"118":0.07886885860210556,"119":0.1677289973065693,"120":-0.05353543557966333,"121":-0.027396068409240956,"122":0.07854719899852852,"123":0.1557401898924067,"124":0.006075360692798501,"125":0.06750454693275197,"126":0.08136082146539189,"127":0.06964648528482399,"128":0.02025485530204158,"129":0.2966809752207805,"130":0.2224633045146267,"131":-0.05498846601852671,"132":0.05510104550186276,"133":0.06823478074424502,"134":0.07276299702217924,"135":-0.04164082435806459,"136":0.12684608676983433,"137":0.16745618209356314,"138":0.04186313352344318,"139":0.08791625589841688,"140":0.05520650469041811,"141":0.12267466851639659,"142":-0.00722667370323471,"143":0.08041192020359095,"144":0.10109152849901645,"145":0.04083340579090178,"146":-0.00579497589287972,"147":-0.020712190009960864,"148":0.09496731503487607,"149":0.016856530474501478,"150":0.10928484340695689,"151":0.1314219170819191,"152":-0.17530230061028185,"153":0.0359928552576447,"154":-0.02145115858554859,"155":-0.005487189820094833,"156":0.10030209555503743,"157":0.07285963327298518,"158":0.11672438148963984,"159":-0.011504689867086033,"160":0.03746086666750243,"161":-0.005852118189830556,"162":0.03591370422974097,"163":0.0697952355383312,"164":0.10911817881430014,"165":0.20419074251721428,"166":-0.01758052349706235,"167":0.0031591628616427898,"168":0.13028244081484172,"169":-0.05385936685192707,"170":0.00027957742402205275,"171":0.19389959289369244,"172":0.22293162614246578,"173":-0.04407920449762716,"174":0.025440327521470088,"175":0.027022126912203858,"176":0.015396736005748897,"177":0.04509028723952901,"178":0.008792004155844245,"179":-0.06520242684433863,"180":0.15202500349347084,"181":-0.016411266380205496,"182":-0.015783543092105903,"183":-0.01383645946347692,"184":-0.03839195855293472,"185":-0.0677086098315041,"186":-0.011534541610134232,"187":-0.08290831589375883,"188":-0.1738258114300225,"189":-0.029285271752437055,"190":0.06398061322004868,"191":0.19925473570117794,"192":-0.06756990933847774,"193":-0.10210597347322295,"194":-0.04389558057351332,"195":-0.03604929907124517,"196":-0.2914812588919002,"197":0.05328483552182471,"198":0.15496621257191623,"199":-0.20126349715180294,"200":0.1359232538377832,"201":-0.07054728463733444,"202":-0.18007536954932607,"203":-0.07850016761648622,"204":-0.07956082525163187,"205":-0.028133861421545243,"206":-0.14035289103557566,"207":0.14149088438886373,"208":0.057113777345438564,"209":0.017151661543659182,"210":-0.016926632524387503,"211":-0.041518714721574736,"212":-0.04796900065077258,"213":-0.0012380126823625737,"214":0.01296844989839536,"215":0.03432915132856291,"216":-0.018872254288153003,"217":-0.0860693390821524,"218":-0.1313492972528156,"219":-0.234867128711403,"220":0.06474646873073263,"221":0.0816900998052495,"222":0.032675168294816946,"223":-0.08010864411076969,"224":-0.07631430271768494,"225":-0.03387918223331976,"226":-0.20638964765654114,"227":0.019324988988961504,"228":0.002197766946118708,"229":0.05679422010284597,"230":-0.15898550591229818,"231":0.007194153111058304,"232":-0.22574311684135406,"233":-0.1307328449701373,"234":-0.15397676849657485,"235":0.0433932321711635,"236":-0.15280585056981044,"237":-0.1180735375493431,"238":-0.0858248247704987,"239":-0.08855436170789807,"240":-0.13790052628272131,"241":-0.12379046480174292,"242":0.14638717740974014,"243":-0.0012531479683048528,"244":-0.01949301601642207,"245":-0.09148208019257426,"246":-0.12225437140029402,"247":-0.07688888384169473,"248":-0.20060002946037533,"249":0.20731842964206718,"250":-0.005126614989306008,"251":-0.13624258053546895,"252":-0.06255897737611057,"253":-0.07235494070606323,"254":0.008965400043807656,"255":-0.4103502880974164,"256":0.3219531879263132,"257":-0.24613597840039528,"258":-0.012092646885578762,"259":0.05479639737538447,"260":-0.07214520611484285,"261":-0.042423226236800705,"262":-0.27042627976542827,"263":-0.015291151830343885,"264":-0.0207200870743983,"265":-0.044790341535445574,"266":-0.1963607313627017,"267":0.12911915479993422,"268":-0.23502249186215196,"269":-0.3494216588605149,"270":-0.31276965783271216,"271":-0.12622716070383835,"272":-0.08993089708070508,"273":-0.057925631837229874,"274":-0.09023767836718169,"275":0.01615843346852613,"276":0.014138502189491756,"277":-0.29882265299631816,"278":-0.2524562972601339,"279":0.021359716537425886,"280":-0.08261183649571673,"281":-0.025859128486289587,"282":-0.1848868053105105,"283":0.2615982916453513,"284":-0.3635421424660257,"285":0.10790141298111017,"286":-0.07909762375038702,"287":-0.10793659530247181,"288":-0.02768804689936595,"289":-0.11724297693006494,"290":0.018927200427684903,"291":-0.2796639875406119,"292":-0.1447917666006811,"293":0.018896664997983197,"294":-0.20570489159359973,"295":-0.006210083438871287,"296":-0.19142670961273603,"297":-0.2944880389582001,"298":-0.2187382984383815,"299":0.00798992803085151,"300":0.04916170313796983,"301":-0.06423573618633889,"302":-0.11350154817279463,"303":0.04932846459600144,"304":-0.26092727646599306,"305":-0.0840433522793812,"306":-0.25904838536265784,"307":0.01800096822078938,"308":0.0969915610206781,"309":-0.051386016687195356,"310":0.03359572279335249,"311":-0.6645557624284802,"312":0.0216475966275532,"313":0.012696508598798482,"314":0.08556473880787062,"315":-0.04496726435031094,"316":0.013291964162451863,"317":-0.04510920177777806,"318":-0.6839831656613735,"319":0.06849886102739439,"320":-0.038514504309049416,"321":-0.12475852108754713,"322":0.10897695924746244,"323":-0.056510242786664805,"324":0.02963423687166836,"325":-0.5987094521728207,"326":0.016222280732371964,"327":-0.14898136946028842,"328":0.004283936906580874,"329":0.014704083280565416,"330":0.30523796629829836,"331":-0.2025342446714843,"332":-0.5982537430518484,"333":0.09282278733099082,"334":0.05779450491929201,"335":-0.050452766989611667,"336":-0.028540588843649305,"337":0.12511642379558605,"338":0.10810904552543836,"339":-0.14699350563877847,"340":-0.3168305630259092,"341":-0.12023797780770355,"342":-0.10590181323174976,"343":-0.010574969592531644,"344":0.28138743105678077,"345":0.26567100976245533,"346":0.06609148889264231,"347":-0.3173668574183392,"348":-0.03469249404117797,"349":-0.12806146430585846,"350":0.19292876437816606,"351":0.17667515241080967,"352":0.45237104055067084,"353":-0.18316812194710377,"354":-0.2578491710470128,"355":-0.04680269243823023,"356":-0.07028436095017031,"357":0.018717479111168858,"358":0.04882873964493565,"359":0.27658710307069734,"360":-0.2516858737389799,"361":-0.2666741674108981,"362":-0.0799936698740402,"363":0.1501051681612682,"364":0.09641837805505346,"365":0.06826092246431938,"366":0.2671264547704087,"367":-0.11134392573668656,"368":-0.37164328409919806,"369":-0.02501407731806813,"370":-0.15309289282171656,"371":0.01018956754740426,"372":-0.002842970129760161,"373":0.11783403744690846,"374":-0.2384028556368395,"375":-0.4843837245001517,"376":0.051003222129439994,"377":-0.00011062186147473517,"378":0.05233789187950379,"379":-0.019884947498607215,"380":0.10318192935539186,"381":0.31648441172044084,"382":-0.07191343401653856,"383":0.2727318233208134,"384":0.06688478592852963,"385":0.003602098374595555,"386":-0.046905801715721646,"387":0.2245039173168111,"388":0.28994086665924634,"389":-0.000003917565483937762,"390":-0.0459642442435686,"391":0.0063024359525058705,"392":-0.08122531387460785,"393":-0.02626262177248461,"394":0.2537677552478414,"395":0.0795206839544475,"396":-0.10996858843918103,"397":-0.13346827921961849,"398":-0.027093763237253914,"399":0.035078463451986716,"400":0.12027304943507308,"401":0.29795091711611277,"402":-0.35153865225852277,"403":-0.1557073423452335,"404":-0.025849434634652838,"405":0.0564345527767524,"406":0.08258237186188704,"407":0.12575414712136201,"408":0.0460533621238461,"409":-0.36967328035580316,"410":-0.052211719374030935,"411":0.027978560221066748,"412":0.09012774059421697,"413":0.08266581403218182,"414":0.17681444164956636,"415":0.19138945514191547,"416":-0.33085386037385117,"417":0.11821186620418551,"418":0.0529720816251151,"419":0.15784411650695743}},{"sx":1,"sy":1,"depth":420,"w":{"0":0.12998302286069205,"1":-0.24631736167401388,"2":0.0399210388002807,"3":0.285616218557055,"4":-0.011986449636309068,"5":0.052570923663700565,"6":0.020665586691259046,"7":0.07196242186121196,"8":-0.19372720702112955,"9":0.14011763380871278,"10":0.059208036006060616,"11":-0.033636056808803806,"12":-0.02024420180927246,"13":0.07280408226946511,"14":0.06520707970603512,"15":0.03859900521029923,"16":0.0387313666319869,"17":-0.022462711781621906,"18":0.0546168846107512,"19":-0.03381724464043749,"20":-0.0836425203450282,"21":-0.07789814195379942,"22":0.02688076211296165,"23":0.1028607339346718,"24":0.051068640490133,"25":-0.08859742557267047,"26":0.013125353418168647,"27":0.028218379190378545,"28":-0.03795956704833128,"29":0.0234006469772811,"30":0.03237584184402888,"31":0.006898644824801772,"32":-0.15243054845090337,"33":-0.1420601770518625,"34":-0.10630229809532168,"35":-0.050513298166513225,"36":0.03811134971615293,"37":0.06861336050791525,"38":0.16416791471053307,"39":0.10201782637867422,"40":0.02465929824264977,"41":0.009896438951327066,"42":0.02843840692300702,"43":-0.06634283681081576,"44":0.21592936510663482,"45":0.12758528661573962,"46":0.04413010612634672,"47":-0.041409666176659296,"48":0.058080357708434754,"49":0.05064842157963592,"50":0.07215868473138574,"51":0.1438223710635845,"52":0.11732628183583904,"53":0.10182539363978114,"54":-0.07988775033389764,"55":-0.039070846642273865,"56":-0.12464036413376336,"57":0.03485961066389921,"58":0.07670875126315961,"59":0.010660854615595105,"60":0.0867707900681818,"61":-0.02260895424485857,"62":-0.018554346735070778,"63":0.011021997675203832,"64":-0.04840038117922288,"65":-0.0034546932376845617,"66":0.036319283132664026,"67":0.08625155969635759,"68":0.11273925201625949,"69":0.08962284901139801,"70":0.03638878606413799,"71":-0.030857133267060806,"72":0.1406573494963823,"73":0.07946282279165603,"74":0.11539976532265835,"75":0.13065630242767318,"76":0.05430410007376523,"77":-0.23034185080707284,"78":0.004624747889037374,"79":0.06333944597091588,"80":-0.02940138978197598,"81":0.18418700598682328,"82":0.0313719761879156,"83":0.07056432938354809,"84":-0.03695537712214268,"85":-0.0521044537646933,"86":0.17991352232494104,"87":0.1409371221709216,"88":-0.038095307562460705,"89":0.043740404128102574,"90":-0.07515015315820922,"91":-0.05145428560894382,"92":0.03585381611730604,"93":0.0248213104112915,"94":0.10079139213151152,"95":-0.03982845651056448,"96":-0.0375779649027901,"97":0.05510740620369817,"98":-0.10236788702026715,"99":0.024141515154961775,"100":0.19051144291380367,"101":0.014708973522519691,"102":0.02657080539533832,"103":0.05673806173687957,"104":0.08393475775895057,"105":-0.12005532597529095,"106":0.07328014134304199,"107":-0.040897693460472055,"108":0.16501591164509544,"109":0.0680804269847078,"110":0.14002495646855165,"111":0.0341617197458275,"112":-0.1424899095271692,"113":0.03249626704266336,"114":0.07526206799982606,"115":0.2061217061569428,"116":0.012232301964484375,"117":0.10532540216159551,"118":0.02212489842050346,"119":0.07708153925478065,"120":0.021669143352075072,"121":0.1353370888071108,"122":0.04557695481277033,"123":0.05750181362271888,"124":0.04517285587431003,"125":-0.006149441153136744,"126":0.14103400574080505,"127":0.12060461866930307,"128":0.11557992477131628,"129":0.10175232963890539,"130":0.2126022859861765,"131":0.09152066181377158,"132":0.02056596906192935,"133":0.006124337329545278,"134":0.00943772905093332,"135":-0.03214677303281404,"136":0.10353821156485711,"137":0.023330919606994162,"138":0.13712966446400965,"139":-0.009794856941021808,"140":0.05944155741457494,"141":0.06364029944876248,"142":0.1549870539655211,"143":0.0958174896888713,"144":-0.0031491487201131987,"145":0.07931288678638346,"146":0.05344712553029273,"147":0.022732168879264054,"148":0.03989631466656492,"149":0.062476464128115174,"150":0.0326923249738107,"151":0.046374662557497615,"152":-0.07664366646037322,"153":0.011610613003845858,"154":-0.056972433975004164,"155":0.0038480962864475285,"156":0.09738159457543984,"157":0.21574373244502645,"158":0.19242599943937663,"159":0.012696032701134204,"160":-0.06085173711380763,"161":-0.01673659891002934,"162":-0.043300677331547466,"163":-0.13479562977098244,"164":0.31387227518995975,"165":-0.05480962145187822,"166":0.006204712391085534,"167":0.060311267486982116,"168":-0.09596495587743915,"169":0.03525759507734788,"170":0.060657975942292594,"171":0.11411496579729537,"172":0.0781498355084493,"173":0.030488212722916096,"174":0.041138127456613896,"175":0.1675943605572301,"176":0.1773684055078964,"177":0.01149696629839453,"178":0.20389925704908776,"179":0.10919455831825566,"180":-0.023592874644804602,"181":0.05966535787205921,"182":0.1120511921133906,"183":0.04977567558822715,"184":0.11981742946650713,"185":0.2150795102923528,"186":0.10449209790009659,"187":0.1881630761002584,"188":0.10529102332289317,"189":0.01976319024910685,"190":0.029871770522557357,"191":0.22559600616654268,"192":0.18644982540991176,"193":0.08136422690491904,"194":-0.04407572128663089,"195":0.08523212797795533,"196":-0.009342440071013374,"197":0.08645620138156043,"198":0.12485484892301105,"199":0.20122015097066992,"200":0.06327320874416911,"201":0.07050017982450987,"202":-0.002121961773588174,"203":0.013345929236503691,"204":0.09475656489760355,"205":0.30527835641118306,"206":0.10110912385298276,"207":0.08326914657309861,"208":0.12457040198163054,"209":0.072699113283192,"210":-0.11583512066977726,"211":0.13904771150693523,"212":0.16187327407616314,"213":0.23326414368165224,"214":0.062374811882904946,"215":0.00015040132907652258,"216":0.05597791265199736,"217":0.08422384605785652,"218":0.1800923628827207,"219":0.09824165045939881,"220":0.24149799613793432,"221":-0.1339257540235985,"222":0.10238718344453973,"223":-0.057619315582804156,"224":0.09572651524220718,"225":-0.025777609110522244,"226":-0.03651197733952257,"227":0.15937928689419126,"228":-0.08954906826335791,"229":0.05336032555340734,"230":0.05136267610945786,"231":-0.05838504592091136,"232":0.11966704451953147,"233":0.13493354137449304,"234":0.16861752195524832,"235":-0.28661363617477154,"236":0.1590502920458681,"237":-0.07034494516386637,"238":0.031053578863195073,"239":0.0202690185277103,"240":0.1653268727540999,"241":0.16348661351450863,"242":-0.14179076478795485,"243":-0.10135618561308261,"244":-0.008738199888540885,"245":0.025126859877922677,"246":0.06270775635852115,"247":0.10993346329786835,"248":0.19830191810207817,"249":-0.15471267368805247,"250":0.12262313984386147,"251":-0.030044011854256425,"252":-0.010716886253323146,"253":-0.14420557120921634,"254":0.15432933399858395,"255":0.34391183786691004,"256":-0.29373042129480287,"257":0.08330983048141202,"258":-0.05129225918056075,"259":-0.01615992532832886,"260":-0.054636345867952074,"261":0.14521260433236788,"262":0.3189693834435048,"263":-0.19944088010625707,"264":-0.006226033916208868,"265":-0.09911849848097949,"266":-0.08893199212537063,"267":0.017336244527042487,"268":0.11485466113083,"269":0.18802269229373575,"270":-0.1464802966500961,"271":-0.14303375918583386,"272":-0.011005506790227208,"273":-0.12728939643595763,"274":0.0015387519229123077,"275":0.21400644241665007,"276":-0.030367189522323475,"277":-0.3179471417199827,"278":-0.08591577689087793,"279":-0.029843170324594107,"280":-0.11157570970037907,"281":-0.05253910865129777,"282":0.07308329262710281,"283":0.22337131703480678,"284":-0.1727901175951516,"285":-0.17162360439013272,"286":0.00784170163974031,"287":-0.10565475470288473,"288":0.023155734679045373,"289":0.057914884301279945,"290":0.3015604134666849,"291":-0.16855699790971546,"292":-0.009804117284625843,"293":-0.0049214166475422885,"294":-0.0662070793538774,"295":0.15757153632854298,"296":0.042686211332989124,"297":0.44601300131064686,"298":-0.28202063871956146,"299":-0.12012995678580562,"300":0.012686122626034578,"301":0.04499717383379164,"302":0.16327152510615278,"303":-0.16907732658145064,"304":0.6834967507941844,"305":-0.22107178354235418,"306":-0.1310073459001627,"307":-0.04040635440866336,"308":-0.004616458248979926,"309":0.03408608035908865,"310":-0.17990170069026265,"311":0.376789501573363,"312":-0.22497056778952768,"313":-0.022226020787141924,"314":-0.046623532187397974,"315":-0.0039665636289234005,"316":-0.09294006884614685,"317":-0.29281209519201595,"318":0.4782843532329676,"319":-0.13411836823814755,"320":-0.18982019998875602,"321":0.08254085245606407,"322":-0.08391294762899637,"323":0.07963228140783388,"324":-0.3827700596709723,"325":0.22860938070827982,"326":-0.06780212793641492,"327":-0.08639823337678094,"328":-0.024598570641822096,"329":0.05294541810276106,"330":0.04172929783667977,"331":-0.15557287573705386,"332":-0.41135516402048317,"333":0.16260136447243936,"334":0.05260576394918122,"335":0.0621525313130371,"336":-0.07323787524675766,"337":-0.04874056363581225,"338":-0.265336923859497,"339":-0.4487292375865786,"340":0.038700555244496816,"341":0.08494930860691964,"342":0.07171625715912157,"343":-0.010675016158871257,"344":0.00970084550744068,"345":-0.2981569561141997,"346":-0.9863513337014544,"347":0.24478149158325097,"348":0.0996325229626825,"349":-0.017697987442806182,"350":-0.055682493021276425,"351":0.020417777994369727,"352":-0.185843638193109,"353":0.40710254019554537,"354":0.1748383930781301,"355":0.03931862522858909,"356":-0.04872859504107232,"357":-0.00896199886032376,"358":-0.014427287496767662,"359":-0.09877820084147099,"360":0.4229511640384725,"361":0.23271591593678612,"362":-0.03993782441285993,"363":-0.1955834967932824,"364":-0.07538219246035295,"365":0.056577119553408,"366":-0.16807428438583535,"367":0.4470605001893435,"368":0.26581475817162087,"369":0.14951044295676347,"370":0.01875862644602681,"371":-0.07599190768863208,"372":-0.0812726363622267,"373":-0.14437445459971107,"374":0.3194050430849836,"375":0.23478243346046898,"376":0.13472877266154792,"377":0.09256503931668478,"378":-0.041433679136072155,"379":-0.028091865323385475,"380":-0.11136374712304488,"381":-1.2377862157987132,"382":0.30764096147347614,"383":0.10535568653074179,"384":0.09467732057822881,"385":0.07409623339345768,"386":0.027485091665008808,"387":-0.08762301616866207,"388":-1.0947943865173975,"389":0.09815161070800839,"390":0.05412132397828248,"391":-0.2162823516214696,"392":0.03742264269386149,"393":0.07572792909652125,"394":-0.05317128908503615,"395":-0.8472361255414882,"396":0.07373738665397102,"397":0.1262103565660073,"398":-0.07878914226485927,"399":0.06575971058610013,"400":0.014855683057137314,"401":-0.027105418144882567,"402":0.07433046717738571,"403":0.13188979950100885,"404":-0.10407467547340174,"405":0.019074452801100792,"406":0.01791990808900815,"407":0.021768913214620145,"408":-0.039984670478376554,"409":-0.09120048757318991,"410":0.06361278322189108,"411":0.05121956360048823,"412":-0.03873063606280637,"413":0.14197130623362048,"414":0.022635833832823322,"415":-0.15178832818377813,"416":-0.1264133627293204,"417":0.01581996730269263,"418":-0.022371337898904647,"419":-0.0779653330787765}},{"sx":1,"sy":1,"depth":420,"w":{"0":-0.009215516400947279,"1":-0.1865223408045622,"2":0.08465206819516416,"3":-0.13098165423732852,"4":-0.22850649144763138,"5":-0.11145191315600587,"6":-0.2133892898109357,"7":-0.08585720106377606,"8":-0.14393223513050352,"9":0.06517413271955046,"10":-0.1264450108331271,"11":-0.08530520294749241,"12":-0.02989595428646076,"13":0.01812321834127093,"14":0.04456559032578499,"15":0.07207490654887595,"16":-0.042428807801150825,"17":-0.07952194108853783,"18":0.00862817413916172,"19":-0.16695280877860522,"20":-0.018523682223872146,"21":-0.15739384071847076,"22":-0.06924771542734295,"23":0.04110253130416188,"24":-0.1297916826496396,"25":-0.13688427823241406,"26":-0.07247882888383982,"27":-0.01671703799057371,"28":0.008178682535207739,"29":-0.1161959380158548,"30":-0.02454547970567663,"31":-0.06107164245881747,"32":-0.10081883490521094,"33":-0.06191945670806577,"34":-0.1355064643742154,"35":0.020868654585759077,"36":-0.17459498050036437,"37":0.03996728996730846,"38":-0.047490570759579534,"39":-0.05870544548685524,"40":0.06717025344618854,"41":0.0542251687432397,"42":-0.0428950585413432,"43":-0.060253664939794,"44":0.05934584978419323,"45":-0.09295744224977559,"46":-0.0903255822658515,"47":-0.022797843314248046,"48":-0.01323432148819993,"49":-0.019350641545524853,"50":-0.09698326774856278,"51":0.0639011352001343,"52":0.006254043549045747,"53":0.03177162256554959,"54":-0.06844741119803528,"55":-0.05804714076906678,"56":-0.10531501264701916,"57":-0.024655021226448613,"58":0.08176195717524976,"59":0.022840440919787597,"60":-0.10788093290363919,"61":0.0030509764787787315,"62":-0.03999169088466786,"63":0.008190513339146912,"64":-0.14956401059250946,"65":0.007028679793717082,"66":-0.03249974902735781,"67":-0.037805431619340774,"68":-0.11371707697148001,"69":0.035548017474247774,"70":0.04585379341740163,"71":0.012191328796475649,"72":0.003538420920433325,"73":-0.01899127481353252,"74":0.10910186479146086,"75":-0.07638156043515437,"76":-0.0818950538364153,"77":0.04671977762011181,"78":0.050172661113092924,"79":0.0655254792421095,"80":-0.0022863763333114953,"81":0.001252456733831519,"82":-0.2231556921747856,"83":-0.03849337636474642,"84":0.11367400654476166,"85":-0.08207439628133353,"86":0.000364481143641549,"87":-0.0178854659376786,"88":-0.019856513735024908,"89":-0.12001419638115343,"90":0.027127513192120752,"91":-0.009887424481068286,"92":0.11481616372273876,"93":-0.0288446071449292,"94":-0.1537134834395887,"95":0.032663015885889865,"96":-0.21635569289778367,"97":0.036301940848521376,"98":0.12402435226730414,"99":0.09494086228509051,"100":-0.026696532363848426,"101":-0.021028461527189846,"102":-0.0037728751071879215,"103":0.012748578443019683,"104":0.10130936193163034,"105":0.06388657484318666,"106":0.04665728225322754,"107":0.043100123745472466,"108":-0.03446512320754935,"109":0.09616625645447271,"110":0.0632151282258756,"111":0.10184859199796877,"112":0.08168895650988003,"113":0.08116572669266696,"114":-0.055343455535426654,"115":0.07290300864565538,"116":0.010736488968551228,"117":-0.023761559669067945,"118":-0.045938424346908945,"119":0.1465593023720976,"120":0.049483025080828136,"121":0.023212594317931018,"122":0.03491186258852266,"123":-0.026101142209205563,"124":0.05546690433042655,"125":-0.028113541955487858,"126":0.11940748934815502,"127":0.03372856595201082,"128":-0.056903281140227684,"129":-0.10928398232493582,"130":0.11802642696967798,"131":-0.12090513184308048,"132":-0.02122463455333596,"133":0.25454277950924176,"134":0.1256584926836333,"135":-0.020959420670911506,"136":0.07165609144688694,"137":-0.01767322604617034,"138":0.06263215174310376,"139":0.2512224327272109,"140":-0.06605791948866531,"141":-0.05672207686655467,"142":-0.06310203494865406,"143":-0.12420250616199835,"144":-0.15376567138263497,"145":0.07936548036004791,"146":0.22222614207089952,"147":0.14883577240344434,"148":-0.03976115505734587,"149":0.05455968655673499,"150":0.10307152652568025,"151":-0.0762681873726249,"152":0.036786524773794765,"153":0.11410218397894675,"154":0.11767206539830692,"155":0.035000369894854506,"156":-0.02979451645591561,"157":0.09600218178870835,"158":-0.2202199143464732,"159":-0.02925557955107456,"160":0.0072065887931496994,"161":0.11757307648527021,"162":0.031903630894461986,"163":-0.006023179227044888,"164":0.03782725997845375,"165":0.03274148013238991,"166":0.18618929944478427,"167":-0.24333691433851146,"168":0.1619104918611195,"169":0.08964583541645409,"170":-0.046994950636610265,"171":0.13340230576318876,"172":0.01120636786645681,"173":0.10679937681430149,"174":-0.18332966279824556,"175":0.009015484415377053,"176":0.16816234157556262,"177":-0.2933775134136297,"178":-0.1613460493063628,"179":-0.02404590760848266,"180":0.0543579858411015,"181":-0.06695391175837949,"182":0.11879183726491573,"183":0.08825658658576492,"184":-0.18491675645719394,"185":-0.0020798173841260724,"186":-0.02976435924072606,"187":-0.0677259211486235,"188":-0.012202047581676631,"189":0.01752631024996102,"190":0.04797282591560944,"191":-0.01016563080217904,"192":-0.11572879034514136,"193":-0.02105185658866014,"194":0.09174486375809295,"195":-0.12616210659360094,"196":0.010313688182051634,"197":0.005133185214904129,"198":-0.08067648189427426,"199":-0.21971047819038048,"200":0.18849749367323507,"201":0.0957935156990354,"202":0.04073657303511313,"203":-0.0017042725483841688,"204":0.08348492512297293,"205":-0.07336963869085268,"206":-0.030439092581329135,"207":0.10556297278974303,"208":0.0793078287881939,"209":-0.04191503829311185,"210":-0.09914981671936997,"211":0.2135852623775974,"212":-0.11010605819575621,"213":-0.061142706839086625,"214":0.2366673060328311,"215":0.11865917313495945,"216":0.0484950834772365,"217":0.14684578025178677,"218":0.03486408319856283,"219":-0.15672761920972267,"220":-0.06101514559132048,"221":-0.014206314590263735,"222":0.08599095577043635,"223":-0.067827525578239,"224":0.08945786079433551,"225":0.16752604815424696,"226":-0.12248698665972159,"227":0.14706600909590753,"228":0.15988717481119238,"229":0.023060485158482313,"230":0.018884864837291845,"231":0.06254546002645507,"232":0.05315235715935478,"233":-0.005716847936968734,"234":-0.12110561121327246,"235":0.15499372293075692,"236":0.11574783753771659,"237":0.07498976859066012,"238":0.027209555618746804,"239":-0.06882607939175787,"240":-0.19970252637383581,"241":-0.21142159753153886,"242":0.11150963632570052,"243":0.2933288109987615,"244":0.12801533771333246,"245":-0.02971368127594545,"246":0.18838224984216176,"247":-0.22136909524151535,"248":0.14033698592339935,"249":0.19939802247350058,"250":0.16434843153372175,"251":0.10349099777355367,"252":0.02149801732042986,"253":0.036788025526390905,"254":-0.092047432408606,"255":-0.04144425023415267,"256":0.13013492214827227,"257":0.22826966065385026,"258":0.24235441150385142,"259":0.0014191069303810936,"260":0.14246918770570155,"261":-0.017726429375311065,"262":0.20129973470379725,"263":0.2789951624972891,"264":0.22297489788819116,"265":-0.03916154477298387,"266":0.038690800548814415,"267":0.08759595515044014,"268":-0.23020536088071708,"269":0.027565176274858997,"270":0.16501395877555225,"271":0.13861405908061894,"272":-0.07623507725924052,"273":0.052167197603395145,"274":0.03774333226335848,"275":-0.17734410009408316,"276":0.04971732138049931,"277":0.056807211678303916,"278":0.052398281584699474,"279":0.1085211200366103,"280":0.07689477546575502,"281":0.16457375955889705,"282":-0.3806396190586878,"283":-0.0278018785886452,"284":0.06756810767598705,"285":0.16471275591082218,"286":0.10627207874134237,"287":0.10880215625946979,"288":0.0747770256816313,"289":-0.18748699148289077,"290":-0.11542053100312111,"291":-0.024436206438256135,"292":0.02115438233961011,"293":0.13515645630025253,"294":0.21942461733712165,"295":0.10366520246820672,"296":-0.06650559999769443,"297":-0.14370741044281027,"298":0.02522716780184223,"299":-0.0030987043397138567,"300":0.09376424745275017,"301":0.15174228823555785,"302":0.13367185547143987,"303":0.08447831298749393,"304":-0.18877270615485572,"305":0.34444247908532083,"306":0.11097638109958839,"307":0.016946624866812584,"308":-0.1143265863962527,"309":0.1006015784476686,"310":0.08637729019826958,"311":-0.34471243015791114,"312":0.2632576659315695,"313":0.09810459082193251,"314":-0.1799223799789252,"315":0.0068548825950303345,"316":0.07362514977071137,"317":0.07007913200715067,"318":-0.07604049708193988,"319":0.379936866420416,"320":0.190484546810147,"321":-0.20475352113551754,"322":-0.16660656314804645,"323":0.09859129236386618,"324":0.10125433540912786,"325":-0.25265553872044233,"326":0.3134536344268465,"327":0.16061132428707978,"328":0.04331505212904641,"329":0.062438666047653336,"330":-0.0380116503970071,"331":-0.0023931674231081014,"332":-0.49349374762299164,"333":0.1181463173157243,"334":0.12412939321570177,"335":-0.10387121862615623,"336":0.08349312384367187,"337":0.09404541248465036,"338":0.16349872475515337,"339":-0.4880386547639421,"340":0.16603803063303624,"341":0.07969390415321768,"342":0.013580456600947633,"343":-0.04284299586438794,"344":0.09374002236129098,"345":0.1379027619822923,"346":-0.30491517104271104,"347":0.21187693647858005,"348":0.3770301151636567,"349":0.08893546041755976,"350":-0.0335115885176005,"351":0.04343289318351497,"352":0.14388561845356734,"353":-0.021211874818276848,"354":0.3101996796645686,"355":0.45681492774323784,"356":-0.026619716115683,"357":0.007145144555538283,"358":0.06399347217215537,"359":0.2254978893562443,"360":0.023550762620621106,